digraph Tree {
node [shape=box, style="filled, rounded", color="black", fontname=helvetica] ;
edge [fontname=helvetica] ;
0 [label="skew <= -0.485\ngini = 0.401\nsamples = 38022\nvalue = [27488, 10534]\nclass = 耀发", fillcolor="#efb185"] ;
1 [label="amp <= 3.206\ngini = 0.328\nsamples = 7392\nvalue = [1529, 5863]\nclass = 非耀发", fillcolor="#6db7ec"] ;
0 -> 1 [labeldistance=2.5, labelangle=45, headlabel="True"] ;
2 [label="max_slope <= 1.012\ngini = 0.214\nsamples = 1174\nvalue = [1031, 143]\nclass = 耀发", fillcolor="#e99254"] ;
1 -> 2 ;
3 [label="fpr35 <= 0.227\ngini = 0.494\nsamples = 320\nvalue = [177, 143]\nclass = 耀发", fillcolor="#fae7d9"] ;
2 -> 3 ;
4 [label="gini = 0.0\nsamples = 100\nvalue = [100, 0]\nclass = 耀发", fillcolor="#e58139"] ;
3 -> 4 ;
5 [label="fpr65 <= 0.619\ngini = 0.455\nsamples = 220\nvalue = [77, 143]\nclass = 非耀发", fillcolor="#a4d2f3"] ;
3 -> 5 ;
6 [label="max_slope <= 0.502\ngini = 0.346\nsamples = 184\nvalue = [41, 143]\nclass = 非耀发", fillcolor="#72b9ec"] ;
5 -> 6 ;
7 [label="gini = 0.0\nsamples = 18\nvalue = [18, 0]\nclass = 耀发", fillcolor="#e58139"] ;
6 -> 7 ;
8 [label="stetson_k <= 0.881\ngini = 0.239\nsamples = 166\nvalue = [23, 143]\nclass = 非耀发", fillcolor="#59ade9"] ;
6 -> 8 ;
9 [label="gini = 0.0\nsamples = 11\nvalue = [11, 0]\nclass = 耀发", fillcolor="#e58139"] ;
8 -> 9 ;
10 [label="fpr35 <= 0.31\ngini = 0.143\nsamples = 155\nvalue = [12, 143]\nclass = 非耀发", fillcolor="#4aa5e7"] ;
8 -> 10 ;
11 [label="fpr20 <= 0.155\ngini = 0.065\nsamples = 148\nvalue = [5, 143]\nclass = 非耀发", fillcolor="#40a0e6"] ;
10 -> 11 ;
12 [label="fpr65 <= 0.517\ngini = 0.027\nsamples = 144\nvalue = [2, 142]\nclass = 非耀发", fillcolor="#3c9ee5"] ;
11 -> 12 ;
13 [label="gini = 0.0\nsamples = 1\nvalue = [1, 0]\nclass = 耀发", fillcolor="#e58139"] ;
12 -> 13 ;
14 [label="fpr50 <= 0.345\ngini = 0.014\nsamples = 143\nvalue = [1, 142]\nclass = 非耀发", fillcolor="#3a9ee5"] ;
12 -> 14 ;
15 [label="gini = 0.0\nsamples = 1\nvalue = [1, 0]\nclass = 耀发", fillcolor="#e58139"] ;
14 -> 15 ;
16 [label="gini = 0.0\nsamples = 142\nvalue = [0, 142]\nclass = 非耀发", fillcolor="#399de5"] ;
14 -> 16 ;
17 [label="beyond1std <= 0.367\ngini = 0.375\nsamples = 4\nvalue = [3, 1]\nclass = 耀发", fillcolor="#eeab7b"] ;
11 -> 17 ;
18 [label="gini = 0.0\nsamples = 3\nvalue = [3, 0]\nclass = 耀发", fillcolor="#e58139"] ;
17 -> 18 ;
19 [label="gini = 0.0\nsamples = 1\nvalue = [0, 1]\nclass = 非耀发", fillcolor="#399de5"] ;
17 -> 19 ;
20 [label="gini = 0.0\nsamples = 7\nvalue = [7, 0]\nclass = 耀发", fillcolor="#e58139"] ;
10 -> 20 ;
21 [label="gini = 0.0\nsamples = 36\nvalue = [36, 0]\nclass = 耀发", fillcolor="#e58139"] ;
5 -> 21 ;
22 [label="gini = 0.0\nsamples = 854\nvalue = [854, 0]\nclass = 耀发", fillcolor="#e58139"] ;
2 -> 22 ;
23 [label="max_slope <= 0.618\ngini = 0.147\nsamples = 6218\nvalue = [498, 5720]\nclass = 非耀发", fillcolor="#4aa6e7"] ;
1 -> 23 ;
24 [label="gini = 0.0\nsamples = 103\nvalue = [103, 0]\nclass = 耀发", fillcolor="#e58139"] ;
23 -> 24 ;
25 [label="fpr20 <= 0.119\ngini = 0.121\nsamples = 6115\nvalue = [395, 5720]\nclass = 非耀发", fillcolor="#47a4e7"] ;
23 -> 25 ;
26 [label="fpr20 <= 0.007\ngini = 0.096\nsamples = 6024\nvalue = [304, 5720]\nclass = 非耀发", fillcolor="#44a2e6"] ;
25 -> 26 ;
27 [label="gini = 0.0\nsamples = 65\nvalue = [65, 0]\nclass = 耀发", fillcolor="#e58139"] ;
26 -> 27 ;
28 [label="fpr65 <= 0.597\ngini = 0.077\nsamples = 5959\nvalue = [239, 5720]\nclass = 非耀发", fillcolor="#41a1e6"] ;
26 -> 28 ;
29 [label="max_slope <= 2.572\ngini = 0.07\nsamples = 5935\nvalue = [215, 5720]\nclass = 非耀发", fillcolor="#40a1e6"] ;
28 -> 29 ;
30 [label="mad <= 0.831\ngini = 0.064\nsamples = 5917\nvalue = [197, 5720]\nclass = 非耀发", fillcolor="#40a0e6"] ;
29 -> 30 ;
31 [label="mad <= 0.214\ngini = 0.059\nsamples = 5900\nvalue = [180, 5720]\nclass = 非耀发", fillcolor="#3fa0e6"] ;
30 -> 31 ;
32 [label="gini = 0.0\nsamples = 12\nvalue = [12, 0]\nclass = 耀发", fillcolor="#e58139"] ;
31 -> 32 ;
33 [label="beyond1std <= 0.45\ngini = 0.055\nsamples = 5888\nvalue = [168, 5720]\nclass = 非耀发", fillcolor="#3fa0e6"] ;
31 -> 33 ;
34 [label="max_slope <= 1.911\ngini = 0.054\nsamples = 5883\nvalue = [163, 5720]\nclass = 非耀发", fillcolor="#3fa0e6"] ;
33 -> 34 ;
35 [label="fpr65 <= 0.129\ngini = 0.048\nsamples = 5777\nvalue = [142, 5635]\nclass = 非耀发", fillcolor="#3e9fe6"] ;
34 -> 35 ;
36 [label="gini = 0.0\nsamples = 6\nvalue = [6, 0]\nclass = 耀发", fillcolor="#e58139"] ;
35 -> 36 ;
37 [label="amp <= 4.31\ngini = 0.046\nsamples = 5771\nvalue = [136, 5635]\nclass = 非耀发", fillcolor="#3e9fe6"] ;
35 -> 37 ;
38 [label="max_slope <= 0.641\ngini = 0.045\nsamples = 5767\nvalue = [132, 5635]\nclass = 非耀发", fillcolor="#3e9fe6"] ;
37 -> 38 ;
39 [label="stetson_j <= -4.281\ngini = 0.43\nsamples = 32\nvalue = [10, 22]\nclass = 非耀发", fillcolor="#93caf1"] ;
38 -> 39 ;
40 [label="gini = 0.0\nsamples = 8\nvalue = [8, 0]\nclass = 耀发", fillcolor="#e58139"] ;
39 -> 40 ;
41 [label="fpr65 <= 0.531\ngini = 0.153\nsamples = 24\nvalue = [2, 22]\nclass = 非耀发", fillcolor="#4ba6e7"] ;
39 -> 41 ;
42 [label="gini = 0.0\nsamples = 22\nvalue = [0, 22]\nclass = 非耀发", fillcolor="#399de5"] ;
41 -> 42 ;
43 [label="gini = 0.0\nsamples = 2\nvalue = [2, 0]\nclass = 耀发", fillcolor="#e58139"] ;
41 -> 43 ;
44 [label="fpr50 <= 0.373\ngini = 0.042\nsamples = 5735\nvalue = [122, 5613]\nclass = 非耀发", fillcolor="#3d9fe6"] ;
38 -> 44 ;
45 [label="fpr35 <= 0.031\ngini = 0.041\nsamples = 5733\nvalue = [120, 5613]\nclass = 非耀发", fillcolor="#3d9fe6"] ;
44 -> 45 ;
46 [label="gini = 0.0\nsamples = 2\nvalue = [2, 0]\nclass = 耀发", fillcolor="#e58139"] ;
45 -> 46 ;
47 [label="amp <= 4.24\ngini = 0.04\nsamples = 5731\nvalue = [118, 5613]\nclass = 非耀发", fillcolor="#3d9fe6"] ;
45 -> 47 ;
48 [label="skew <= -1.15\ngini = 0.039\nsamples = 5715\nvalue = [113, 5602]\nclass = 非耀发", fillcolor="#3d9fe6"] ;
47 -> 48 ;
49 [label="beyond1std <= 0.15\ngini = 0.004\nsamples = 2247\nvalue = [4, 2243]\nclass = 非耀发", fillcolor="#399de5"] ;
48 -> 49 ;
50 [label="gini = 0.0\nsamples = 1\nvalue = [1, 0]\nclass = 耀发", fillcolor="#e58139"] ;
49 -> 50 ;
51 [label="amp <= 3.499\ngini = 0.003\nsamples = 2246\nvalue = [3, 2243]\nclass = 非耀发", fillcolor="#399de5"] ;
49 -> 51 ;
52 [label="gini = 0.0\nsamples = 1\nvalue = [1, 0]\nclass = 耀发", fillcolor="#e58139"] ;
51 -> 52 ;
53 [label="fpr65 <= 0.131\ngini = 0.002\nsamples = 2245\nvalue = [2, 2243]\nclass = 非耀发", fillcolor="#399de5"] ;
51 -> 53 ;
54 [label="fpr35 <= 0.051\ngini = 0.18\nsamples = 10\nvalue = [1, 9]\nclass = 非耀发", fillcolor="#4fa8e8"] ;
53 -> 54 ;
55 [label="gini = 0.0\nsamples = 1\nvalue = [1, 0]\nclass = 耀发", fillcolor="#e58139"] ;
54 -> 55 ;
56 [label="gini = 0.0\nsamples = 9\nvalue = [0, 9]\nclass = 非耀发", fillcolor="#399de5"] ;
54 -> 56 ;
57 [label="amp <= 3.554\ngini = 0.001\nsamples = 2235\nvalue = [1, 2234]\nclass = 非耀发", fillcolor="#399de5"] ;
53 -> 57 ;
58 [label="fpr80 <= 0.777\ngini = 0.044\nsamples = 44\nvalue = [1, 43]\nclass = 非耀发", fillcolor="#3e9fe6"] ;
57 -> 58 ;
59 [label="gini = 0.0\nsamples = 1\nvalue = [1, 0]\nclass = 耀发", fillcolor="#e58139"] ;
58 -> 59 ;
60 [label="gini = 0.0\nsamples = 43\nvalue = [0, 43]\nclass = 非耀发", fillcolor="#399de5"] ;
58 -> 60 ;
61 [label="gini = 0.0\nsamples = 2191\nvalue = [0, 2191]\nclass = 非耀发", fillcolor="#399de5"] ;
57 -> 61 ;
62 [label="fpr80 <= 0.434\ngini = 0.061\nsamples = 3468\nvalue = [109, 3359]\nclass = 非耀发", fillcolor="#3fa0e6"] ;
48 -> 62 ;
63 [label="gini = 0.0\nsamples = 5\nvalue = [5, 0]\nclass = 耀发", fillcolor="#e58139"] ;
62 -> 63 ;
64 [label="stetson_j <= -8.909\ngini = 0.058\nsamples = 3463\nvalue = [104, 3359]\nclass = 非耀发", fillcolor="#3fa0e6"] ;
62 -> 64 ;
65 [label="gini = 0.0\nsamples = 4\nvalue = [4, 0]\nclass = 耀发", fillcolor="#e58139"] ;
64 -> 65 ;
66 [label="mad <= 0.292\ngini = 0.056\nsamples = 3459\nvalue = [100, 3359]\nclass = 非耀发", fillcolor="#3fa0e6"] ;
64 -> 66 ;
67 [label="gini = 0.0\nsamples = 3\nvalue = [3, 0]\nclass = 耀发", fillcolor="#e58139"] ;
66 -> 67 ;
68 [label="amp <= 3.847\ngini = 0.055\nsamples = 3456\nvalue = [97, 3359]\nclass = 非耀发", fillcolor="#3fa0e6"] ;
66 -> 68 ;
69 [label="fpr20 <= 0.019\ngini = 0.043\nsamples = 3269\nvalue = [72, 3197]\nclass = 非耀发", fillcolor="#3d9fe6"] ;
68 -> 69 ;
70 [label="gini = 0.0\nsamples = 4\nvalue = [4, 0]\nclass = 耀发", fillcolor="#e58139"] ;
69 -> 70 ;
71 [label="fpr35 <= 0.058\ngini = 0.041\nsamples = 3265\nvalue = [68, 3197]\nclass = 非耀发", fillcolor="#3d9fe6"] ;
69 -> 71 ;
72 [label="gini = 0.0\nsamples = 3\nvalue = [3, 0]\nclass = 耀发", fillcolor="#e58139"] ;
71 -> 72 ;
73 [label="max_slope <= 1.739\ngini = 0.039\nsamples = 3262\nvalue = [65, 3197]\nclass = 非耀发", fillcolor="#3d9fe6"] ;
71 -> 73 ;
74 [label="beyond1std <= 0.183\ngini = 0.037\nsamples = 3259\nvalue = [62, 3197]\nclass = 非耀发", fillcolor="#3d9fe6"] ;
73 -> 74 ;
75 [label="gini = 0.0\nsamples = 2\nvalue = [2, 0]\nclass = 耀发", fillcolor="#e58139"] ;
74 -> 75 ;
76 [label="sk <= 0.674\ngini = 0.036\nsamples = 3257\nvalue = [60, 3197]\nclass = 非耀发", fillcolor="#3d9fe5"] ;
74 -> 76 ;
77 [label="fpr80 <= 0.658\ngini = 0.036\nsamples = 3256\nvalue = [59, 3197]\nclass = 非耀发", fillcolor="#3d9fe5"] ;
76 -> 77 ;
78 [label="fpr65 <= 0.263\ngini = 0.143\nsamples = 206\nvalue = [16, 190]\nclass = 非耀发", fillcolor="#4aa5e7"] ;
77 -> 78 ;
79 [label="gini = 0.0\nsamples = 190\nvalue = [0, 190]\nclass = 非耀发", fillcolor="#399de5"] ;
78 -> 79 ;
80 [label="gini = 0.0\nsamples = 16\nvalue = [16, 0]\nclass = 耀发", fillcolor="#e58139"] ;
78 -> 80 ;
81 [label="fpr80 <= 0.989\ngini = 0.028\nsamples = 3050\nvalue = [43, 3007]\nclass = 非耀发", fillcolor="#3c9ee5"] ;
77 -> 81 ;
82 [label="mad <= 0.329\ngini = 0.025\nsamples = 3020\nvalue = [38, 2982]\nclass = 非耀发", fillcolor="#3c9ee5"] ;
81 -> 82 ;
83 [label="amp <= 3.259\ngini = 0.346\nsamples = 9\nvalue = [2, 7]\nclass = 非耀发", fillcolor="#72b9ec"] ;
82 -> 83 ;
84 [label="gini = 0.0\nsamples = 7\nvalue = [0, 7]\nclass = 非耀发", fillcolor="#399de5"] ;
83 -> 84 ;
85 [label="gini = 0.0\nsamples = 2\nvalue = [2, 0]\nclass = 耀发", fillcolor="#e58139"] ;
83 -> 85 ;
86 [label="beyond1std <= 0.417\ngini = 0.024\nsamples = 3011\nvalue = [36, 2975]\nclass = 非耀发", fillcolor="#3b9ee5"] ;
82 -> 86 ;
87 [label="fpr65 <= 0.393\ngini = 0.022\nsamples = 2999\nvalue = [34, 2965]\nclass = 非耀发", fillcolor="#3b9ee5"] ;
86 -> 87 ;
88 [label="stetson_k <= 0.861\ngini = 0.009\nsamples = 1917\nvalue = [9, 1908]\nclass = 非耀发", fillcolor="#3a9de5"] ;
87 -> 88 ;
89 [label="fpr20 <= 0.102\ngini = 0.007\nsamples = 1915\nvalue = [7, 1908]\nclass = 非耀发", fillcolor="#3a9de5"] ;
88 -> 89 ;
90 [label="fpr35 <= 0.19\ngini = 0.005\nsamples = 1879\nvalue = [5, 1874]\nclass = 非耀发", fillcolor="#3a9de5"] ;
89 -> 90 ;
91 [label="mad <= 0.393\ngini = 0.004\nsamples = 1868\nvalue = [4, 1864]\nclass = 非耀发", fillcolor="#399de5"] ;
90 -> 91 ;
92 [label="stetson_j <= -6.39\ngini = 0.133\nsamples = 14\nvalue = [1, 13]\nclass = 非耀发", fillcolor="#48a5e7"] ;
91 -> 92 ;
93 [label="gini = 0.0\nsamples = 13\nvalue = [0, 13]\nclass = 非耀发", fillcolor="#399de5"] ;
92 -> 93 ;
94 [label="gini = 0.0\nsamples = 1\nvalue = [1, 0]\nclass = 耀发", fillcolor="#e58139"] ;
92 -> 94 ;
95 [label="beyond1std <= 0.383\ngini = 0.003\nsamples = 1854\nvalue = [3, 1851]\nclass = 非耀发", fillcolor="#399de5"] ;
91 -> 95 ;
96 [label="max_slope <= 0.727\ngini = 0.002\nsamples = 1829\nvalue = [2, 1827]\nclass = 非耀发", fillcolor="#399de5"] ;
95 -> 96 ;
97 [label="stetson_j <= -6.107\ngini = 0.067\nsamples = 29\nvalue = [1, 28]\nclass = 非耀发", fillcolor="#40a0e6"] ;
96 -> 97 ;
98 [label="gini = 0.0\nsamples = 1\nvalue = [1, 0]\nclass = 耀发", fillcolor="#e58139"] ;
97 -> 98 ;
99 [label="gini = 0.0\nsamples = 28\nvalue = [0, 28]\nclass = 非耀发", fillcolor="#399de5"] ;
97 -> 99 ;
100 [label="fpr35 <= 0.165\ngini = 0.001\nsamples = 1800\nvalue = [1, 1799]\nclass = 非耀发", fillcolor="#399de5"] ;
96 -> 100 ;
101 [label="gini = 0.0\nsamples = 1737\nvalue = [0, 1737]\nclass = 非耀发", fillcolor="#399de5"] ;
100 -> 101 ;
102 [label="stetson_j <= -4.585\ngini = 0.031\nsamples = 63\nvalue = [1, 62]\nclass = 非耀发", fillcolor="#3c9fe5"] ;
100 -> 102 ;
103 [label="gini = 0.0\nsamples = 62\nvalue = [0, 62]\nclass = 非耀发", fillcolor="#399de5"] ;
102 -> 103 ;
104 [label="gini = 0.0\nsamples = 1\nvalue = [1, 0]\nclass = 耀发", fillcolor="#e58139"] ;
102 -> 104 ;
105 [label="fpr65 <= 0.302\ngini = 0.077\nsamples = 25\nvalue = [1, 24]\nclass = 非耀发", fillcolor="#41a1e6"] ;
95 -> 105 ;
106 [label="gini = 0.0\nsamples = 1\nvalue = [1, 0]\nclass = 耀发", fillcolor="#e58139"] ;
105 -> 106 ;
107 [label="gini = 0.0\nsamples = 24\nvalue = [0, 24]\nclass = 非耀发", fillcolor="#399de5"] ;
105 -> 107 ;
108 [label="max_slope <= 0.977\ngini = 0.165\nsamples = 11\nvalue = [1, 10]\nclass = 非耀发", fillcolor="#4da7e8"] ;
90 -> 108 ;
109 [label="gini = 0.0\nsamples = 1\nvalue = [1, 0]\nclass = 耀发", fillcolor="#e58139"] ;
108 -> 109 ;
110 [label="gini = 0.0\nsamples = 10\nvalue = [0, 10]\nclass = 非耀发", fillcolor="#399de5"] ;
108 -> 110 ;
111 [label="kurtosis <= -0.566\ngini = 0.105\nsamples = 36\nvalue = [2, 34]\nclass = 非耀发", fillcolor="#45a3e7"] ;
89 -> 111 ;
112 [label="gini = 0.0\nsamples = 34\nvalue = [0, 34]\nclass = 非耀发", fillcolor="#399de5"] ;
111 -> 112 ;
113 [label="gini = 0.0\nsamples = 2\nvalue = [2, 0]\nclass = 耀发", fillcolor="#e58139"] ;
111 -> 113 ;
114 [label="gini = 0.0\nsamples = 2\nvalue = [2, 0]\nclass = 耀发", fillcolor="#e58139"] ;
88 -> 114 ;
115 [label="fpr80 <= 0.737\ngini = 0.045\nsamples = 1082\nvalue = [25, 1057]\nclass = 非耀发", fillcolor="#3e9fe6"] ;
87 -> 115 ;
116 [label="gini = 0.0\nsamples = 5\nvalue = [5, 0]\nclass = 耀发", fillcolor="#e58139"] ;
115 -> 116 ;
117 [label="stetson_j <= -6.427\ngini = 0.036\nsamples = 1077\nvalue = [20, 1057]\nclass = 非耀发", fillcolor="#3d9fe5"] ;
115 -> 117 ;
118 [label="gini = 0.0\nsamples = 3\nvalue = [3, 0]\nclass = 耀发", fillcolor="#e58139"] ;
117 -> 118 ;
119 [label="stetson_k <= 0.814\ngini = 0.031\nsamples = 1074\nvalue = [17, 1057]\nclass = 非耀发", fillcolor="#3c9fe5"] ;
117 -> 119 ;
120 [label="gini = 0.0\nsamples = 1\nvalue = [1, 0]\nclass = 耀发", fillcolor="#e58139"] ;
119 -> 120 ;
121 [label="beyond1std <= 0.25\ngini = 0.029\nsamples = 1073\nvalue = [16, 1057]\nclass = 非耀发", fillcolor="#3c9ee5"] ;
119 -> 121 ;
122 [label="gini = 0.0\nsamples = 1\nvalue = [1, 0]\nclass = 耀发", fillcolor="#e58139"] ;
121 -> 122 ;
123 [label="amp <= 3.742\ngini = 0.028\nsamples = 1072\nvalue = [15, 1057]\nclass = 非耀发", fillcolor="#3c9ee5"] ;
121 -> 123 ;
124 [label="fpr35 <= 0.116\ngini = 0.026\nsamples = 1071\nvalue = [14, 1057]\nclass = 非耀发", fillcolor="#3c9ee5"] ;
123 -> 124 ;
125 [label="skew <= -0.768\ngini = 0.139\nsamples = 80\nvalue = [6, 74]\nclass = 非耀发", fillcolor="#49a5e7"] ;
124 -> 125 ;
126 [label="gini = 0.0\nsamples = 74\nvalue = [0, 74]\nclass = 非耀发", fillcolor="#399de5"] ;
125 -> 126 ;
127 [label="gini = 0.0\nsamples = 6\nvalue = [6, 0]\nclass = 耀发", fillcolor="#e58139"] ;
125 -> 127 ;
128 [label="fpr50 <= 0.216\ngini = 0.016\nsamples = 991\nvalue = [8, 983]\nclass = 非耀发", fillcolor="#3b9ee5"] ;
124 -> 128 ;
129 [label="max_slope <= 1.014\ngini = 0.155\nsamples = 59\nvalue = [5, 54]\nclass = 非耀发", fillcolor="#4ba6e7"] ;
128 -> 129 ;
130 [label="gini = 0.0\nsamples = 5\nvalue = [5, 0]\nclass = 耀发", fillcolor="#e58139"] ;
129 -> 130 ;
131 [label="gini = 0.0\nsamples = 54\nvalue = [0, 54]\nclass = 非耀发", fillcolor="#399de5"] ;
129 -> 131 ;
132 [label="skew <= -0.487\ngini = 0.006\nsamples = 932\nvalue = [3, 929]\nclass = 非耀发", fillcolor="#3a9de5"] ;
128 -> 132 ;
133 [label="fpr50 <= 0.351\ngini = 0.004\nsamples = 921\nvalue = [2, 919]\nclass = 非耀发", fillcolor="#399de5"] ;
132 -> 133 ;
134 [label="mad <= 0.516\ngini = 0.002\nsamples = 910\nvalue = [1, 909]\nclass = 非耀发", fillcolor="#399de5"] ;
133 -> 134 ;
135 [label="fpr50 <= 0.294\ngini = 0.024\nsamples = 81\nvalue = [1, 80]\nclass = 非耀发", fillcolor="#3b9ee5"] ;
134 -> 135 ;
136 [label="gini = 0.0\nsamples = 80\nvalue = [0, 80]\nclass = 非耀发", fillcolor="#399de5"] ;
135 -> 136 ;
137 [label="gini = 0.0\nsamples = 1\nvalue = [1, 0]\nclass = 耀发", fillcolor="#e58139"] ;
135 -> 137 ;
138 [label="gini = 0.0\nsamples = 829\nvalue = [0, 829]\nclass = 非耀发", fillcolor="#399de5"] ;
134 -> 138 ;
139 [label="max_slope <= 0.798\ngini = 0.165\nsamples = 11\nvalue = [1, 10]\nclass = 非耀发", fillcolor="#4da7e8"] ;
133 -> 139 ;
140 [label="gini = 0.0\nsamples = 1\nvalue = [1, 0]\nclass = 耀发", fillcolor="#e58139"] ;
139 -> 140 ;
141 [label="gini = 0.0\nsamples = 10\nvalue = [0, 10]\nclass = 非耀发", fillcolor="#399de5"] ;
139 -> 141 ;
142 [label="fpr35 <= 0.213\ngini = 0.165\nsamples = 11\nvalue = [1, 10]\nclass = 非耀发", fillcolor="#4da7e8"] ;
132 -> 142 ;
143 [label="gini = 0.0\nsamples = 10\nvalue = [0, 10]\nclass = 非耀发", fillcolor="#399de5"] ;
142 -> 143 ;
144 [label="gini = 0.0\nsamples = 1\nvalue = [1, 0]\nclass = 耀发", fillcolor="#e58139"] ;
142 -> 144 ;
145 [label="gini = 0.0\nsamples = 1\nvalue = [1, 0]\nclass = 耀发", fillcolor="#e58139"] ;
123 -> 145 ;
146 [label="kurtosis <= -0.799\ngini = 0.278\nsamples = 12\nvalue = [2, 10]\nclass = 非耀发", fillcolor="#61b1ea"] ;
86 -> 146 ;
147 [label="gini = 0.0\nsamples = 10\nvalue = [0, 10]\nclass = 非耀发", fillcolor="#399de5"] ;
146 -> 147 ;
148 [label="gini = 0.0\nsamples = 2\nvalue = [2, 0]\nclass = 耀发", fillcolor="#e58139"] ;
146 -> 148 ;
149 [label="mad <= 0.467\ngini = 0.278\nsamples = 30\nvalue = [5, 25]\nclass = 非耀发", fillcolor="#61b1ea"] ;
81 -> 149 ;
150 [label="gini = 0.0\nsamples = 3\nvalue = [3, 0]\nclass = 耀发", fillcolor="#e58139"] ;
149 -> 150 ;
151 [label="fpr20 <= 0.059\ngini = 0.137\nsamples = 27\nvalue = [2, 25]\nclass = 非耀发", fillcolor="#49a5e7"] ;
149 -> 151 ;
152 [label="fpr35 <= 0.101\ngini = 0.444\nsamples = 3\nvalue = [2, 1]\nclass = 耀发", fillcolor="#f2c09c"] ;
151 -> 152 ;
153 [label="gini = 0.0\nsamples = 1\nvalue = [0, 1]\nclass = 非耀发", fillcolor="#399de5"] ;
152 -> 153 ;
154 [label="gini = 0.0\nsamples = 2\nvalue = [2, 0]\nclass = 耀发", fillcolor="#e58139"] ;
152 -> 154 ;
155 [label="gini = 0.0\nsamples = 24\nvalue = [0, 24]\nclass = 非耀发", fillcolor="#399de5"] ;
151 -> 155 ;
156 [label="gini = 0.0\nsamples = 1\nvalue = [1, 0]\nclass = 耀发", fillcolor="#e58139"] ;
76 -> 156 ;
157 [label="gini = 0.0\nsamples = 3\nvalue = [3, 0]\nclass = 耀发", fillcolor="#e58139"] ;
73 -> 157 ;
158 [label="fpr20 <= 0.042\ngini = 0.232\nsamples = 187\nvalue = [25, 162]\nclass = 非耀发", fillcolor="#58ace9"] ;
68 -> 158 ;
159 [label="max_slope <= 0.95\ngini = 0.11\nsamples = 172\nvalue = [10, 162]\nclass = 非耀发", fillcolor="#45a3e7"] ;
158 -> 159 ;
160 [label="gini = 0.0\nsamples = 3\nvalue = [3, 0]\nclass = 耀发", fillcolor="#e58139"] ;
159 -> 160 ;
161 [label="max_slope <= 1.342\ngini = 0.079\nsamples = 169\nvalue = [7, 162]\nclass = 非耀发", fillcolor="#42a1e6"] ;
159 -> 161 ;
162 [label="fpr65 <= 0.347\ngini = 0.025\nsamples = 156\nvalue = [2, 154]\nclass = 非耀发", fillcolor="#3c9ee5"] ;
161 -> 162 ;
163 [label="skew <= -0.599\ngini = 0.013\nsamples = 154\nvalue = [1, 153]\nclass = 非耀发", fillcolor="#3a9ee5"] ;
162 -> 163 ;
164 [label="gini = 0.0\nsamples = 152\nvalue = [0, 152]\nclass = 非耀发", fillcolor="#399de5"] ;
163 -> 164 ;
165 [label="stetson_k <= 0.824\ngini = 0.5\nsamples = 2\nvalue = [1, 1]\nclass = 耀发", fillcolor="#ffffff"] ;
163 -> 165 ;
166 [label="gini = 0.0\nsamples = 1\nvalue = [1, 0]\nclass = 耀发", fillcolor="#e58139"] ;
165 -> 166 ;
167 [label="gini = 0.0\nsamples = 1\nvalue = [0, 1]\nclass = 非耀发", fillcolor="#399de5"] ;
165 -> 167 ;
168 [label="stetson_j <= -6.129\ngini = 0.5\nsamples = 2\nvalue = [1, 1]\nclass = 耀发", fillcolor="#ffffff"] ;
162 -> 168 ;
169 [label="gini = 0.0\nsamples = 1\nvalue = [1, 0]\nclass = 耀发", fillcolor="#e58139"] ;
168 -> 169 ;
170 [label="gini = 0.0\nsamples = 1\nvalue = [0, 1]\nclass = 非耀发", fillcolor="#399de5"] ;
168 -> 170 ;
171 [label="sk <= 0.674\ngini = 0.473\nsamples = 13\nvalue = [5, 8]\nclass = 非耀发", fillcolor="#b5daf5"] ;
161 -> 171 ;
172 [label="gini = 0.0\nsamples = 5\nvalue = [5, 0]\nclass = 耀发", fillcolor="#e58139"] ;
171 -> 172 ;
173 [label="gini = 0.0\nsamples = 8\nvalue = [0, 8]\nclass = 非耀发", fillcolor="#399de5"] ;
171 -> 173 ;
174 [label="gini = 0.0\nsamples = 15\nvalue = [15, 0]\nclass = 耀发", fillcolor="#e58139"] ;
158 -> 174 ;
175 [label="beyond1std <= 0.283\ngini = 0.43\nsamples = 16\nvalue = [5, 11]\nclass = 非耀发", fillcolor="#93caf1"] ;
47 -> 175 ;
176 [label="gini = 0.0\nsamples = 11\nvalue = [0, 11]\nclass = 非耀发", fillcolor="#399de5"] ;
175 -> 176 ;
177 [label="gini = 0.0\nsamples = 5\nvalue = [5, 0]\nclass = 耀发", fillcolor="#e58139"] ;
175 -> 177 ;
178 [label="gini = 0.0\nsamples = 2\nvalue = [2, 0]\nclass = 耀发", fillcolor="#e58139"] ;
44 -> 178 ;
179 [label="gini = 0.0\nsamples = 4\nvalue = [4, 0]\nclass = 耀发", fillcolor="#e58139"] ;
37 -> 179 ;
180 [label="stetson_k <= 0.713\ngini = 0.318\nsamples = 106\nvalue = [21, 85]\nclass = 非耀发", fillcolor="#6ab5eb"] ;
34 -> 180 ;
181 [label="fpr80 <= 0.557\ngini = 0.067\nsamples = 86\nvalue = [3, 83]\nclass = 非耀发", fillcolor="#40a1e6"] ;
180 -> 181 ;
182 [label="gini = 0.0\nsamples = 83\nvalue = [0, 83]\nclass = 非耀发", fillcolor="#399de5"] ;
181 -> 182 ;
183 [label="gini = 0.0\nsamples = 3\nvalue = [3, 0]\nclass = 耀发", fillcolor="#e58139"] ;
181 -> 183 ;
184 [label="mad <= 0.384\ngini = 0.18\nsamples = 20\nvalue = [18, 2]\nclass = 耀发", fillcolor="#e88f4f"] ;
180 -> 184 ;
185 [label="fpr20 <= 0.012\ngini = 0.5\nsamples = 4\nvalue = [2, 2]\nclass = 耀发", fillcolor="#ffffff"] ;
184 -> 185 ;
186 [label="gini = 0.0\nsamples = 2\nvalue = [2, 0]\nclass = 耀发", fillcolor="#e58139"] ;
185 -> 186 ;
187 [label="gini = 0.0\nsamples = 2\nvalue = [0, 2]\nclass = 非耀发", fillcolor="#399de5"] ;
185 -> 187 ;
188 [label="gini = 0.0\nsamples = 16\nvalue = [16, 0]\nclass = 耀发", fillcolor="#e58139"] ;
184 -> 188 ;
189 [label="gini = 0.0\nsamples = 5\nvalue = [5, 0]\nclass = 耀发", fillcolor="#e58139"] ;
33 -> 189 ;
190 [label="gini = 0.0\nsamples = 17\nvalue = [17, 0]\nclass = 耀发", fillcolor="#e58139"] ;
30 -> 190 ;
191 [label="gini = 0.0\nsamples = 18\nvalue = [18, 0]\nclass = 耀发", fillcolor="#e58139"] ;
29 -> 191 ;
192 [label="gini = 0.0\nsamples = 24\nvalue = [24, 0]\nclass = 耀发", fillcolor="#e58139"] ;
28 -> 192 ;
193 [label="gini = 0.0\nsamples = 91\nvalue = [91, 0]\nclass = 耀发", fillcolor="#e58139"] ;
25 -> 193 ;
194 [label="max_slope <= 0.797\ngini = 0.258\nsamples = 30630\nvalue = [25959, 4671]\nclass = 耀发", fillcolor="#ea985d"] ;
0 -> 194 [labeldistance=2.5, labelangle=-45, headlabel="False"] ;
195 [label="skew <= 0.242\ngini = 0.461\nsamples = 7754\nvalue = [4957, 2797]\nclass = 耀发", fillcolor="#f4c8a9"] ;
194 -> 195 ;
196 [label="fpr80 <= 0.784\ngini = 0.5\nsamples = 4013\nvalue = [1956, 2057]\nclass = 非耀发", fillcolor="#f5fafe"] ;
195 -> 196 ;
197 [label="max_slope <= 0.794\ngini = 0.017\nsamples = 233\nvalue = [231, 2]\nclass = 耀发", fillcolor="#e5823b"] ;
196 -> 197 ;
198 [label="gini = 0.0\nsamples = 230\nvalue = [230, 0]\nclass = 耀发", fillcolor="#e58139"] ;
197 -> 198 ;
199 [label="stetson_k <= 0.86\ngini = 0.444\nsamples = 3\nvalue = [1, 2]\nclass = 非耀发", fillcolor="#9ccef2"] ;
197 -> 199 ;
200 [label="gini = 0.0\nsamples = 2\nvalue = [0, 2]\nclass = 非耀发", fillcolor="#399de5"] ;
199 -> 200 ;
201 [label="gini = 0.0\nsamples = 1\nvalue = [1, 0]\nclass = 耀发", fillcolor="#e58139"] ;
199 -> 201 ;
202 [label="fpr35 <= 0.538\ngini = 0.496\nsamples = 3780\nvalue = [1725, 2055]\nclass = 非耀发", fillcolor="#dfeffb"] ;
196 -> 202 ;
203 [label="sk <= -1.543\ngini = 0.489\nsamples = 3573\nvalue = [1523, 2050]\nclass = 非耀发", fillcolor="#cce6f8"] ;
202 -> 203 ;
204 [label="stetson_k <= 0.919\ngini = 0.319\nsamples = 578\nvalue = [115, 463]\nclass = 非耀发", fillcolor="#6ab5eb"] ;
203 -> 204 ;
205 [label="fpr65 <= 0.739\ngini = 0.245\nsamples = 540\nvalue = [77, 463]\nclass = 非耀发", fillcolor="#5aade9"] ;
204 -> 205 ;
206 [label="kurtosis <= -1.498\ngini = 0.142\nsamples = 26\nvalue = [24, 2]\nclass = 耀发", fillcolor="#e78c49"] ;
205 -> 206 ;
207 [label="gini = 0.0\nsamples = 23\nvalue = [23, 0]\nclass = 耀发", fillcolor="#e58139"] ;
206 -> 207 ;
208 [label="stetson_j <= 0.874\ngini = 0.444\nsamples = 3\nvalue = [1, 2]\nclass = 非耀发", fillcolor="#9ccef2"] ;
206 -> 208 ;
209 [label="gini = 0.0\nsamples = 1\nvalue = [1, 0]\nclass = 耀发", fillcolor="#e58139"] ;
208 -> 209 ;
210 [label="gini = 0.0\nsamples = 2\nvalue = [0, 2]\nclass = 非耀发", fillcolor="#399de5"] ;
208 -> 210 ;
211 [label="fpr65 <= 0.987\ngini = 0.185\nsamples = 514\nvalue = [53, 461]\nclass = 非耀发", fillcolor="#50a8e8"] ;
205 -> 211 ;
212 [label="stetson_j <= -0.427\ngini = 0.125\nsamples = 494\nvalue = [33, 461]\nclass = 非耀发", fillcolor="#47a4e7"] ;
211 -> 212 ;
213 [label="gini = 0.0\nsamples = 7\nvalue = [7, 0]\nclass = 耀发", fillcolor="#e58139"] ;
212 -> 213 ;
214 [label="beyond1std <= 0.55\ngini = 0.101\nsamples = 487\nvalue = [26, 461]\nclass = 非耀发", fillcolor="#44a3e6"] ;
212 -> 214 ;
215 [label="fpr35 <= 0.397\ngini = 0.08\nsamples = 481\nvalue = [20, 461]\nclass = 非耀发", fillcolor="#42a1e6"] ;
214 -> 215 ;
216 [label="gini = 0.0\nsamples = 4\nvalue = [4, 0]\nclass = 耀发", fillcolor="#e58139"] ;
215 -> 216 ;
217 [label="skew <= -0.21\ngini = 0.065\nsamples = 477\nvalue = [16, 461]\nclass = 非耀发", fillcolor="#40a0e6"] ;
215 -> 217 ;
218 [label="gini = 0.0\nsamples = 3\nvalue = [3, 0]\nclass = 耀发", fillcolor="#e58139"] ;
217 -> 218 ;
219 [label="amp <= 2.9\ngini = 0.053\nsamples = 474\nvalue = [13, 461]\nclass = 非耀发", fillcolor="#3fa0e6"] ;
217 -> 219 ;
220 [label="stetson_k <= 0.895\ngini = 0.038\nsamples = 465\nvalue = [9, 456]\nclass = 非耀发", fillcolor="#3d9fe6"] ;
219 -> 220 ;
221 [label="gini = 0.0\nsamples = 1\nvalue = [1, 0]\nclass = 耀发", fillcolor="#e58139"] ;
220 -> 221 ;
222 [label="max_slope <= 0.31\ngini = 0.034\nsamples = 464\nvalue = [8, 456]\nclass = 非耀发", fillcolor="#3c9fe5"] ;
220 -> 222 ;
223 [label="gini = 0.0\nsamples = 1\nvalue = [1, 0]\nclass = 耀发", fillcolor="#e58139"] ;
222 -> 223 ;
224 [label="fpr50 <= 0.832\ngini = 0.03\nsamples = 463\nvalue = [7, 456]\nclass = 非耀发", fillcolor="#3c9fe5"] ;
222 -> 224 ;
225 [label="fpr20 <= 0.196\ngini = 0.026\nsamples = 462\nvalue = [6, 456]\nclass = 非耀发", fillcolor="#3c9ee5"] ;
224 -> 225 ;
226 [label="gini = 0.0\nsamples = 1\nvalue = [1, 0]\nclass = 耀发", fillcolor="#e58139"] ;
225 -> 226 ;
227 [label="skew <= 0.174\ngini = 0.021\nsamples = 461\nvalue = [5, 456]\nclass = 非耀发", fillcolor="#3b9ee5"] ;
225 -> 227 ;
228 [label="amp <= 2.777\ngini = 0.017\nsamples = 458\nvalue = [4, 454]\nclass = 非耀发", fillcolor="#3b9ee5"] ;
227 -> 228 ;
229 [label="gini = 0.0\nsamples = 353\nvalue = [0, 353]\nclass = 非耀发", fillcolor="#399de5"] ;
228 -> 229 ;
230 [label="fpr20 <= 0.294\ngini = 0.073\nsamples = 105\nvalue = [4, 101]\nclass = 非耀发", fillcolor="#41a1e6"] ;
228 -> 230 ;
231 [label="amp <= 2.779\ngini = 0.019\nsamples = 102\nvalue = [1, 101]\nclass = 非耀发", fillcolor="#3b9ee5"] ;
230 -> 231 ;
232 [label="gini = 0.0\nsamples = 1\nvalue = [1, 0]\nclass = 耀发", fillcolor="#e58139"] ;
231 -> 232 ;
233 [label="gini = 0.0\nsamples = 101\nvalue = [0, 101]\nclass = 非耀发", fillcolor="#399de5"] ;
231 -> 233 ;
234 [label="gini = 0.0\nsamples = 3\nvalue = [3, 0]\nclass = 耀发", fillcolor="#e58139"] ;
230 -> 234 ;
235 [label="stetson_j <= 0.254\ngini = 0.444\nsamples = 3\nvalue = [1, 2]\nclass = 非耀发", fillcolor="#9ccef2"] ;
227 -> 235 ;
236 [label="gini = 0.0\nsamples = 1\nvalue = [1, 0]\nclass = 耀发", fillcolor="#e58139"] ;
235 -> 236 ;
237 [label="gini = 0.0\nsamples = 2\nvalue = [0, 2]\nclass = 非耀发", fillcolor="#399de5"] ;
235 -> 237 ;
238 [label="gini = 0.0\nsamples = 1\nvalue = [1, 0]\nclass = 耀发", fillcolor="#e58139"] ;
224 -> 238 ;
239 [label="fpr20 <= 0.236\ngini = 0.494\nsamples = 9\nvalue = [4, 5]\nclass = 非耀发", fillcolor="#d7ebfa"] ;
219 -> 239 ;
240 [label="gini = 0.0\nsamples = 5\nvalue = [0, 5]\nclass = 非耀发", fillcolor="#399de5"] ;
239 -> 240 ;
241 [label="gini = 0.0\nsamples = 4\nvalue = [4, 0]\nclass = 耀发", fillcolor="#e58139"] ;
239 -> 241 ;
242 [label="gini = 0.0\nsamples = 6\nvalue = [6, 0]\nclass = 耀发", fillcolor="#e58139"] ;
214 -> 242 ;
243 [label="gini = 0.0\nsamples = 20\nvalue = [20, 0]\nclass = 耀发", fillcolor="#e58139"] ;
211 -> 243 ;
244 [label="gini = 0.0\nsamples = 38\nvalue = [38, 0]\nclass = 耀发", fillcolor="#e58139"] ;
204 -> 244 ;
245 [label="stetson_k <= 0.9\ngini = 0.498\nsamples = 2995\nvalue = [1408, 1587]\nclass = 非耀发", fillcolor="#e9f4fc"] ;
203 -> 245 ;
246 [label="max_slope <= 0.439\ngini = 0.492\nsamples = 2814\nvalue = [1232, 1582]\nclass = 非耀发", fillcolor="#d3e9f9"] ;
245 -> 246 ;
247 [label="gini = 0.0\nsamples = 134\nvalue = [134, 0]\nclass = 耀发", fillcolor="#e58139"] ;
246 -> 247 ;
248 [label="fpr50 <= 0.371\ngini = 0.484\nsamples = 2680\nvalue = [1098, 1582]\nclass = 非耀发", fillcolor="#c2e1f7"] ;
246 -> 248 ;
249 [label="amp <= 3.718\ngini = 0.32\nsamples = 619\nvalue = [124, 495]\nclass = 非耀发", fillcolor="#6bb6ec"] ;
248 -> 249 ;
250 [label="fpr80 <= 0.981\ngini = 0.269\nsamples = 588\nvalue = [94, 494]\nclass = 非耀发", fillcolor="#5fb0ea"] ;
249 -> 250 ;
251 [label="mad <= 0.945\ngini = 0.217\nsamples = 564\nvalue = [70, 494]\nclass = 非耀发", fillcolor="#55abe9"] ;
250 -> 251 ;
252 [label="stetson_j <= -4.599\ngini = 0.206\nsamples = 559\nvalue = [65, 494]\nclass = 非耀发", fillcolor="#53aae8"] ;
251 -> 252 ;
253 [label="gini = 0.0\nsamples = 5\nvalue = [5, 0]\nclass = 耀发", fillcolor="#e58139"] ;
252 -> 253 ;
254 [label="fpr20 <= 0.047\ngini = 0.193\nsamples = 554\nvalue = [60, 494]\nclass = 非耀发", fillcolor="#51a9e8"] ;
252 -> 254 ;
255 [label="gini = 0.0\nsamples = 5\nvalue = [5, 0]\nclass = 耀发", fillcolor="#e58139"] ;
254 -> 255 ;
256 [label="stetson_k <= 0.82\ngini = 0.18\nsamples = 549\nvalue = [55, 494]\nclass = 非耀发", fillcolor="#4fa8e8"] ;
254 -> 256 ;
257 [label="fpr35 <= 0.136\ngini = 0.039\nsamples = 254\nvalue = [5, 249]\nclass = 非耀发", fillcolor="#3d9fe6"] ;
256 -> 257 ;
258 [label="gini = 0.0\nsamples = 2\nvalue = [2, 0]\nclass = 耀发", fillcolor="#e58139"] ;
257 -> 258 ;
259 [label="max_slope <= 0.647\ngini = 0.024\nsamples = 252\nvalue = [3, 249]\nclass = 非耀发", fillcolor="#3b9ee5"] ;
257 -> 259 ;
260 [label="gini = 0.0\nsamples = 1\nvalue = [1, 0]\nclass = 耀发", fillcolor="#e58139"] ;
259 -> 260 ;
261 [label="mad <= 0.767\ngini = 0.016\nsamples = 251\nvalue = [2, 249]\nclass = 非耀发", fillcolor="#3b9ee5"] ;
259 -> 261 ;
262 [label="sk <= -0.792\ngini = 0.008\nsamples = 250\nvalue = [1, 249]\nclass = 非耀发", fillcolor="#3a9de5"] ;
261 -> 262 ;
263 [label="amp <= 3.536\ngini = 0.32\nsamples = 5\nvalue = [1, 4]\nclass = 非耀发", fillcolor="#6ab6ec"] ;
262 -> 263 ;
264 [label="gini = 0.0\nsamples = 4\nvalue = [0, 4]\nclass = 非耀发", fillcolor="#399de5"] ;
263 -> 264 ;
265 [label="gini = 0.0\nsamples = 1\nvalue = [1, 0]\nclass = 耀发", fillcolor="#e58139"] ;
263 -> 265 ;
266 [label="gini = 0.0\nsamples = 245\nvalue = [0, 245]\nclass = 非耀发", fillcolor="#399de5"] ;
262 -> 266 ;
267 [label="gini = 0.0\nsamples = 1\nvalue = [1, 0]\nclass = 耀发", fillcolor="#e58139"] ;
261 -> 267 ;
268 [label="fpr80 <= 0.894\ngini = 0.282\nsamples = 295\nvalue = [50, 245]\nclass = 非耀发", fillcolor="#61b1ea"] ;
256 -> 268 ;
269 [label="fpr20 <= 0.097\ngini = 0.14\nsamples = 224\nvalue = [17, 207]\nclass = 非耀发", fillcolor="#49a5e7"] ;
268 -> 269 ;
270 [label="gini = 0.0\nsamples = 5\nvalue = [5, 0]\nclass = 耀发", fillcolor="#e58139"] ;
269 -> 270 ;
271 [label="fpr65 <= 0.644\ngini = 0.104\nsamples = 219\nvalue = [12, 207]\nclass = 非耀发", fillcolor="#44a3e7"] ;
269 -> 271 ;
272 [label="fpr65 <= 0.464\ngini = 0.088\nsamples = 217\nvalue = [10, 207]\nclass = 非耀发", fillcolor="#43a2e6"] ;
271 -> 272 ;
273 [label="stetson_k <= 0.861\ngini = 0.388\nsamples = 19\nvalue = [5, 14]\nclass = 非耀发", fillcolor="#80c0ee"] ;
272 -> 273 ;
274 [label="gini = 0.0\nsamples = 5\nvalue = [5, 0]\nclass = 耀发", fillcolor="#e58139"] ;
273 -> 274 ;
275 [label="gini = 0.0\nsamples = 14\nvalue = [0, 14]\nclass = 非耀发", fillcolor="#399de5"] ;
273 -> 275 ;
276 [label="skew <= -0.166\ngini = 0.049\nsamples = 198\nvalue = [5, 193]\nclass = 非耀发", fillcolor="#3ea0e6"] ;
272 -> 276 ;
277 [label="fpr35 <= 0.294\ngini = 0.012\nsamples = 172\nvalue = [1, 171]\nclass = 非耀发", fillcolor="#3a9ee5"] ;
276 -> 277 ;
278 [label="gini = 0.0\nsamples = 159\nvalue = [0, 159]\nclass = 非耀发", fillcolor="#399de5"] ;
277 -> 278 ;
279 [label="beyond1std <= 0.433\ngini = 0.142\nsamples = 13\nvalue = [1, 12]\nclass = 非耀发", fillcolor="#49a5e7"] ;
277 -> 279 ;
280 [label="gini = 0.0\nsamples = 1\nvalue = [1, 0]\nclass = 耀发", fillcolor="#e58139"] ;
279 -> 280 ;
281 [label="gini = 0.0\nsamples = 12\nvalue = [0, 12]\nclass = 非耀发", fillcolor="#399de5"] ;
279 -> 281 ;
282 [label="kurtosis <= -0.903\ngini = 0.26\nsamples = 26\nvalue = [4, 22]\nclass = 非耀发", fillcolor="#5dafea"] ;
276 -> 282 ;
283 [label="gini = 0.0\nsamples = 4\nvalue = [4, 0]\nclass = 耀发", fillcolor="#e58139"] ;
282 -> 283 ;
284 [label="gini = 0.0\nsamples = 22\nvalue = [0, 22]\nclass = 非耀发", fillcolor="#399de5"] ;
282 -> 284 ;
285 [label="gini = 0.0\nsamples = 2\nvalue = [2, 0]\nclass = 耀发", fillcolor="#e58139"] ;
271 -> 285 ;
286 [label="fpr65 <= 0.593\ngini = 0.498\nsamples = 71\nvalue = [33, 38]\nclass = 非耀发", fillcolor="#e5f2fc"] ;
268 -> 286 ;
287 [label="fpr80 <= 0.898\ngini = 0.128\nsamples = 29\nvalue = [27, 2]\nclass = 耀发", fillcolor="#e78a48"] ;
286 -> 287 ;
288 [label="sk <= -0.912\ngini = 0.444\nsamples = 3\nvalue = [1, 2]\nclass = 非耀发", fillcolor="#9ccef2"] ;
287 -> 288 ;
289 [label="gini = 0.0\nsamples = 2\nvalue = [0, 2]\nclass = 非耀发", fillcolor="#399de5"] ;
288 -> 289 ;
290 [label="gini = 0.0\nsamples = 1\nvalue = [1, 0]\nclass = 耀发", fillcolor="#e58139"] ;
288 -> 290 ;
291 [label="gini = 0.0\nsamples = 26\nvalue = [26, 0]\nclass = 耀发", fillcolor="#e58139"] ;
287 -> 291 ;
292 [label="fpr20 <= 0.099\ngini = 0.245\nsamples = 42\nvalue = [6, 36]\nclass = 非耀发", fillcolor="#5aade9"] ;
286 -> 292 ;
293 [label="gini = 0.0\nsamples = 35\nvalue = [0, 35]\nclass = 非耀发", fillcolor="#399de5"] ;
292 -> 293 ;
294 [label="fpr50 <= 0.369\ngini = 0.245\nsamples = 7\nvalue = [6, 1]\nclass = 耀发", fillcolor="#e9965a"] ;
292 -> 294 ;
295 [label="gini = 0.0\nsamples = 6\nvalue = [6, 0]\nclass = 耀发", fillcolor="#e58139"] ;
294 -> 295 ;
296 [label="gini = 0.0\nsamples = 1\nvalue = [0, 1]\nclass = 非耀发", fillcolor="#399de5"] ;
294 -> 296 ;
297 [label="gini = 0.0\nsamples = 5\nvalue = [5, 0]\nclass = 耀发", fillcolor="#e58139"] ;
251 -> 297 ;
298 [label="gini = 0.0\nsamples = 24\nvalue = [24, 0]\nclass = 耀发", fillcolor="#e58139"] ;
250 -> 298 ;
299 [label="max_slope <= 0.787\ngini = 0.062\nsamples = 31\nvalue = [30, 1]\nclass = 耀发", fillcolor="#e68540"] ;
249 -> 299 ;
300 [label="gini = 0.0\nsamples = 30\nvalue = [30, 0]\nclass = 耀发", fillcolor="#e58139"] ;
299 -> 300 ;
301 [label="gini = 0.0\nsamples = 1\nvalue = [0, 1]\nclass = 非耀发", fillcolor="#399de5"] ;
299 -> 301 ;
302 [label="fpr65 <= 0.799\ngini = 0.498\nsamples = 2061\nvalue = [974, 1087]\nclass = 非耀发", fillcolor="#eaf5fc"] ;
248 -> 302 ;
303 [label="mad <= 0.896\ngini = 0.495\nsamples = 1269\nvalue = [698, 571]\nclass = 耀发", fillcolor="#fae8db"] ;
302 -> 303 ;
304 [label="skew <= 0.0\ngini = 0.498\nsamples = 1000\nvalue = [470, 530]\nclass = 非耀发", fillcolor="#e9f4fc"] ;
303 -> 304 ;
305 [label="max_slope <= 0.615\ngini = 0.451\nsamples = 635\nvalue = [218, 417]\nclass = 非耀发", fillcolor="#a1d0f3"] ;
304 -> 305 ;
306 [label="gini = 0.0\nsamples = 71\nvalue = [71, 0]\nclass = 耀发", fillcolor="#e58139"] ;
305 -> 306 ;
307 [label="fpr35 <= 0.236\ngini = 0.385\nsamples = 564\nvalue = [147, 417]\nclass = 非耀发", fillcolor="#7fc0ee"] ;
305 -> 307 ;
308 [label="gini = 0.0\nsamples = 37\nvalue = [37, 0]\nclass = 耀发", fillcolor="#e58139"] ;
307 -> 308 ;
309 [label="fpr35 <= 0.362\ngini = 0.33\nsamples = 527\nvalue = [110, 417]\nclass = 非耀发", fillcolor="#6db7ec"] ;
307 -> 309 ;
310 [label="stetson_j <= -0.935\ngini = 0.258\nsamples = 492\nvalue = [75, 417]\nclass = 非耀发", fillcolor="#5dafea"] ;
309 -> 310 ;
311 [label="beyond1std <= 0.317\ngini = 0.217\nsamples = 476\nvalue = [59, 417]\nclass = 非耀发", fillcolor="#55abe9"] ;
310 -> 311 ;
312 [label="gini = 0.0\nsamples = 7\nvalue = [7, 0]\nclass = 耀发", fillcolor="#e58139"] ;
311 -> 312 ;
313 [label="amp <= 3.727\ngini = 0.197\nsamples = 469\nvalue = [52, 417]\nclass = 非耀发", fillcolor="#52a9e8"] ;
311 -> 313 ;
314 [label="fpr65 <= 0.501\ngini = 0.185\nsamples = 465\nvalue = [48, 417]\nclass = 非耀发", fillcolor="#50a8e8"] ;
313 -> 314 ;
315 [label="amp <= 3.645\ngini = 0.499\nsamples = 19\nvalue = [9, 10]\nclass = 非耀发", fillcolor="#ebf5fc"] ;
314 -> 315 ;
316 [label="gini = 0.0\nsamples = 9\nvalue = [9, 0]\nclass = 耀发", fillcolor="#e58139"] ;
315 -> 316 ;
317 [label="gini = 0.0\nsamples = 10\nvalue = [0, 10]\nclass = 非耀发", fillcolor="#399de5"] ;
315 -> 317 ;
318 [label="amp <= 2.931\ngini = 0.16\nsamples = 446\nvalue = [39, 407]\nclass = 非耀发", fillcolor="#4ca6e7"] ;
314 -> 318 ;
319 [label="gini = 0.0\nsamples = 3\nvalue = [3, 0]\nclass = 耀发", fillcolor="#e58139"] ;
318 -> 319 ;
320 [label="fpr20 <= 0.23\ngini = 0.149\nsamples = 443\nvalue = [36, 407]\nclass = 非耀发", fillcolor="#4ba6e7"] ;
318 -> 320 ;
321 [label="skew <= -0.118\ngini = 0.142\nsamples = 441\nvalue = [34, 407]\nclass = 非耀发", fillcolor="#4aa5e7"] ;
320 -> 321 ;
322 [label="fpr35 <= 0.286\ngini = 0.223\nsamples = 211\nvalue = [27, 184]\nclass = 非耀发", fillcolor="#56abe9"] ;
321 -> 322 ;
323 [label="mad <= 0.87\ngini = 0.219\nsamples = 16\nvalue = [14, 2]\nclass = 耀发", fillcolor="#e99355"] ;
322 -> 323 ;
324 [label="gini = 0.0\nsamples = 14\nvalue = [14, 0]\nclass = 耀发", fillcolor="#e58139"] ;
323 -> 324 ;
325 [label="gini = 0.0\nsamples = 2\nvalue = [0, 2]\nclass = 非耀发", fillcolor="#399de5"] ;
323 -> 325 ;
326 [label="stetson_j <= -1.434\ngini = 0.124\nsamples = 195\nvalue = [13, 182]\nclass = 非耀发", fillcolor="#47a4e7"] ;
322 -> 326 ;
327 [label="max_slope <= 0.788\ngini = 0.099\nsamples = 192\nvalue = [10, 182]\nclass = 非耀发", fillcolor="#44a2e6"] ;
326 -> 327 ;
328 [label="beyond1std <= 0.35\ngini = 0.081\nsamples = 190\nvalue = [8, 182]\nclass = 非耀发", fillcolor="#42a1e6"] ;
327 -> 328 ;
329 [label="sk <= -1.165\ngini = 0.444\nsamples = 3\nvalue = [2, 1]\nclass = 耀发", fillcolor="#f2c09c"] ;
328 -> 329 ;
330 [label="gini = 0.0\nsamples = 2\nvalue = [2, 0]\nclass = 耀发", fillcolor="#e58139"] ;
329 -> 330 ;
331 [label="gini = 0.0\nsamples = 1\nvalue = [0, 1]\nclass = 非耀发", fillcolor="#399de5"] ;
329 -> 331 ;
332 [label="fpr20 <= 0.116\ngini = 0.062\nsamples = 187\nvalue = [6, 181]\nclass = 非耀发", fillcolor="#40a0e6"] ;
328 -> 332 ;
333 [label="gini = 0.0\nsamples = 1\nvalue = [1, 0]\nclass = 耀发", fillcolor="#e58139"] ;
332 -> 333 ;
334 [label="fpr50 <= 0.537\ngini = 0.052\nsamples = 186\nvalue = [5, 181]\nclass = 非耀发", fillcolor="#3ea0e6"] ;
332 -> 334 ;
335 [label="stetson_k <= 0.863\ngini = 0.042\nsamples = 185\nvalue = [4, 181]\nclass = 非耀发", fillcolor="#3d9fe6"] ;
334 -> 335 ;
336 [label="amp <= 3.322\ngini = 0.5\nsamples = 2\nvalue = [1, 1]\nclass = 耀发", fillcolor="#ffffff"] ;
335 -> 336 ;
337 [label="gini = 0.0\nsamples = 1\nvalue = [1, 0]\nclass = 耀发", fillcolor="#e58139"] ;
336 -> 337 ;
338 [label="gini = 0.0\nsamples = 1\nvalue = [0, 1]\nclass = 非耀发", fillcolor="#399de5"] ;
336 -> 338 ;
339 [label="fpr80 <= 0.994\ngini = 0.032\nsamples = 183\nvalue = [3, 180]\nclass = 非耀发", fillcolor="#3c9fe5"] ;
335 -> 339 ;
340 [label="skew <= -0.399\ngini = 0.022\nsamples = 180\nvalue = [2, 178]\nclass = 非耀发", fillcolor="#3b9ee5"] ;
339 -> 340 ;
341 [label="fpr35 <= 0.306\ngini = 0.114\nsamples = 33\nvalue = [2, 31]\nclass = 非耀发", fillcolor="#46a3e7"] ;
340 -> 341 ;
342 [label="gini = 0.0\nsamples = 2\nvalue = [2, 0]\nclass = 耀发", fillcolor="#e58139"] ;
341 -> 342 ;
343 [label="gini = 0.0\nsamples = 31\nvalue = [0, 31]\nclass = 非耀发", fillcolor="#399de5"] ;
341 -> 343 ;
344 [label="gini = 0.0\nsamples = 147\nvalue = [0, 147]\nclass = 非耀发", fillcolor="#399de5"] ;
340 -> 344 ;
345 [label="fpr80 <= 0.994\ngini = 0.444\nsamples = 3\nvalue = [1, 2]\nclass = 非耀发", fillcolor="#9ccef2"] ;
339 -> 345 ;
346 [label="gini = 0.0\nsamples = 1\nvalue = [1, 0]\nclass = 耀发", fillcolor="#e58139"] ;
345 -> 346 ;
347 [label="gini = 0.0\nsamples = 2\nvalue = [0, 2]\nclass = 非耀发", fillcolor="#399de5"] ;
345 -> 347 ;
348 [label="gini = 0.0\nsamples = 1\nvalue = [1, 0]\nclass = 耀发", fillcolor="#e58139"] ;
334 -> 348 ;
349 [label="gini = 0.0\nsamples = 2\nvalue = [2, 0]\nclass = 耀发", fillcolor="#e58139"] ;
327 -> 349 ;
350 [label="gini = 0.0\nsamples = 3\nvalue = [3, 0]\nclass = 耀发", fillcolor="#e58139"] ;
326 -> 350 ;
351 [label="max_slope <= 0.627\ngini = 0.059\nsamples = 230\nvalue = [7, 223]\nclass = 非耀发", fillcolor="#3fa0e6"] ;
321 -> 351 ;
352 [label="kurtosis <= -1.123\ngini = 0.444\nsamples = 3\nvalue = [2, 1]\nclass = 耀发", fillcolor="#f2c09c"] ;
351 -> 352 ;
353 [label="gini = 0.0\nsamples = 2\nvalue = [2, 0]\nclass = 耀发", fillcolor="#e58139"] ;
352 -> 353 ;
354 [label="gini = 0.0\nsamples = 1\nvalue = [0, 1]\nclass = 非耀发", fillcolor="#399de5"] ;
352 -> 354 ;
355 [label="fpr20 <= 0.173\ngini = 0.043\nsamples = 227\nvalue = [5, 222]\nclass = 非耀发", fillcolor="#3d9fe6"] ;
351 -> 355 ;
356 [label="fpr80 <= 0.789\ngini = 0.026\nsamples = 225\nvalue = [3, 222]\nclass = 非耀发", fillcolor="#3c9ee5"] ;
355 -> 356 ;
357 [label="max_slope <= 0.752\ngini = 0.32\nsamples = 5\nvalue = [1, 4]\nclass = 非耀发", fillcolor="#6ab6ec"] ;
356 -> 357 ;
358 [label="gini = 0.0\nsamples = 1\nvalue = [1, 0]\nclass = 耀发", fillcolor="#e58139"] ;
357 -> 358 ;
359 [label="gini = 0.0\nsamples = 4\nvalue = [0, 4]\nclass = 非耀发", fillcolor="#399de5"] ;
357 -> 359 ;
360 [label="skew <= -0.015\ngini = 0.018\nsamples = 220\nvalue = [2, 218]\nclass = 非耀发", fillcolor="#3b9ee5"] ;
356 -> 360 ;
361 [label="gini = 0.0\nsamples = 175\nvalue = [0, 175]\nclass = 非耀发", fillcolor="#399de5"] ;
360 -> 361 ;
362 [label="skew <= -0.014\ngini = 0.085\nsamples = 45\nvalue = [2, 43]\nclass = 非耀发", fillcolor="#42a2e6"] ;
360 -> 362 ;
363 [label="gini = 0.0\nsamples = 1\nvalue = [1, 0]\nclass = 耀发", fillcolor="#e58139"] ;
362 -> 363 ;
364 [label="fpr80 <= 0.894\ngini = 0.044\nsamples = 44\nvalue = [1, 43]\nclass = 非耀发", fillcolor="#3e9fe6"] ;
362 -> 364 ;
365 [label="gini = 0.0\nsamples = 1\nvalue = [1, 0]\nclass = 耀发", fillcolor="#e58139"] ;
364 -> 365 ;
366 [label="gini = 0.0\nsamples = 43\nvalue = [0, 43]\nclass = 非耀发", fillcolor="#399de5"] ;
364 -> 366 ;
367 [label="gini = 0.0\nsamples = 2\nvalue = [2, 0]\nclass = 耀发", fillcolor="#e58139"] ;
355 -> 367 ;
368 [label="gini = 0.0\nsamples = 2\nvalue = [2, 0]\nclass = 耀发", fillcolor="#e58139"] ;
320 -> 368 ;
369 [label="gini = 0.0\nsamples = 4\nvalue = [4, 0]\nclass = 耀发", fillcolor="#e58139"] ;
313 -> 369 ;
370 [label="gini = 0.0\nsamples = 16\nvalue = [16, 0]\nclass = 耀发", fillcolor="#e58139"] ;
310 -> 370 ;
371 [label="gini = 0.0\nsamples = 35\nvalue = [35, 0]\nclass = 耀发", fillcolor="#e58139"] ;
309 -> 371 ;
372 [label="amp <= 3.126\ngini = 0.427\nsamples = 365\nvalue = [252, 113]\nclass = 耀发", fillcolor="#f1ba92"] ;
304 -> 372 ;
373 [label="amp <= 3.06\ngini = 0.467\nsamples = 137\nvalue = [51, 86]\nclass = 非耀发", fillcolor="#aed7f4"] ;
372 -> 373 ;
374 [label="gini = 0.0\nsamples = 31\nvalue = [31, 0]\nclass = 耀发", fillcolor="#e58139"] ;
373 -> 374 ;
375 [label="fpr35 <= 0.398\ngini = 0.306\nsamples = 106\nvalue = [20, 86]\nclass = 非耀发", fillcolor="#67b4eb"] ;
373 -> 375 ;
376 [label="gini = 0.0\nsamples = 14\nvalue = [14, 0]\nclass = 耀发", fillcolor="#e58139"] ;
375 -> 376 ;
377 [label="mad <= 0.774\ngini = 0.122\nsamples = 92\nvalue = [6, 86]\nclass = 非耀发", fillcolor="#47a4e7"] ;
375 -> 377 ;
378 [label="gini = 0.0\nsamples = 3\nvalue = [3, 0]\nclass = 耀发", fillcolor="#e58139"] ;
377 -> 378 ;
379 [label="fpr35 <= 0.423\ngini = 0.065\nsamples = 89\nvalue = [3, 86]\nclass = 非耀发", fillcolor="#40a0e6"] ;
377 -> 379 ;
380 [label="gini = 0.0\nsamples = 86\nvalue = [0, 86]\nclass = 非耀发", fillcolor="#399de5"] ;
379 -> 380 ;
381 [label="gini = 0.0\nsamples = 3\nvalue = [3, 0]\nclass = 耀发", fillcolor="#e58139"] ;
379 -> 381 ;
382 [label="stetson_k <= 0.829\ngini = 0.209\nsamples = 228\nvalue = [201, 27]\nclass = 耀发", fillcolor="#e89254"] ;
372 -> 382 ;
383 [label="max_slope <= 0.768\ngini = 0.488\nsamples = 45\nvalue = [19, 26]\nclass = 非耀发", fillcolor="#cae5f8"] ;
382 -> 383 ;
384 [label="fpr50 <= 0.375\ngini = 0.255\nsamples = 20\nvalue = [17, 3]\nclass = 耀发", fillcolor="#ea975c"] ;
383 -> 384 ;
385 [label="gini = 0.0\nsamples = 3\nvalue = [0, 3]\nclass = 非耀发", fillcolor="#399de5"] ;
384 -> 385 ;
386 [label="gini = 0.0\nsamples = 17\nvalue = [17, 0]\nclass = 耀发", fillcolor="#e58139"] ;
384 -> 386 ;
387 [label="beyond1std <= 0.35\ngini = 0.147\nsamples = 25\nvalue = [2, 23]\nclass = 非耀发", fillcolor="#4aa6e7"] ;
383 -> 387 ;
388 [label="gini = 0.0\nsamples = 2\nvalue = [2, 0]\nclass = 耀发", fillcolor="#e58139"] ;
387 -> 388 ;
389 [label="gini = 0.0\nsamples = 23\nvalue = [0, 23]\nclass = 非耀发", fillcolor="#399de5"] ;
387 -> 389 ;
390 [label="skew <= 0.005\ngini = 0.011\nsamples = 183\nvalue = [182, 1]\nclass = 耀发", fillcolor="#e5823a"] ;
382 -> 390 ;
391 [label="fpr35 <= 0.335\ngini = 0.444\nsamples = 3\nvalue = [2, 1]\nclass = 耀发", fillcolor="#f2c09c"] ;
390 -> 391 ;
392 [label="gini = 0.0\nsamples = 1\nvalue = [0, 1]\nclass = 非耀发", fillcolor="#399de5"] ;
391 -> 392 ;
393 [label="gini = 0.0\nsamples = 2\nvalue = [2, 0]\nclass = 耀发", fillcolor="#e58139"] ;
391 -> 393 ;
394 [label="gini = 0.0\nsamples = 180\nvalue = [180, 0]\nclass = 耀发", fillcolor="#e58139"] ;
390 -> 394 ;
395 [label="max_slope <= 0.44\ngini = 0.258\nsamples = 269\nvalue = [228, 41]\nclass = 耀发", fillcolor="#ea985d"] ;
303 -> 395 ;
396 [label="stetson_k <= 0.874\ngini = 0.1\nsamples = 19\nvalue = [1, 18]\nclass = 非耀发", fillcolor="#44a2e6"] ;
395 -> 396 ;
397 [label="gini = 0.0\nsamples = 1\nvalue = [1, 0]\nclass = 耀发", fillcolor="#e58139"] ;
396 -> 397 ;
398 [label="gini = 0.0\nsamples = 18\nvalue = [0, 18]\nclass = 非耀发", fillcolor="#399de5"] ;
396 -> 398 ;
399 [label="fpr50 <= 0.384\ngini = 0.167\nsamples = 250\nvalue = [227, 23]\nclass = 耀发", fillcolor="#e88e4d"] ;
395 -> 399 ;
400 [label="sk <= -1.235\ngini = 0.459\nsamples = 14\nvalue = [5, 9]\nclass = 非耀发", fillcolor="#a7d3f3"] ;
399 -> 400 ;
401 [label="gini = 0.0\nsamples = 8\nvalue = [0, 8]\nclass = 非耀发", fillcolor="#399de5"] ;
400 -> 401 ;
402 [label="fpr80 <= 0.89\ngini = 0.278\nsamples = 6\nvalue = [5, 1]\nclass = 耀发", fillcolor="#ea9a61"] ;
400 -> 402 ;
403 [label="gini = 0.0\nsamples = 1\nvalue = [0, 1]\nclass = 非耀发", fillcolor="#399de5"] ;
402 -> 403 ;
404 [label="gini = 0.0\nsamples = 5\nvalue = [5, 0]\nclass = 耀发", fillcolor="#e58139"] ;
402 -> 404 ;
405 [label="fpr65 <= 0.741\ngini = 0.112\nsamples = 236\nvalue = [222, 14]\nclass = 耀发", fillcolor="#e78945"] ;
399 -> 405 ;
406 [label="gini = 0.0\nsamples = 188\nvalue = [188, 0]\nclass = 耀发", fillcolor="#e58139"] ;
405 -> 406 ;
407 [label="beyond1std <= 0.417\ngini = 0.413\nsamples = 48\nvalue = [34, 14]\nclass = 耀发", fillcolor="#f0b58b"] ;
405 -> 407 ;
408 [label="skew <= -0.026\ngini = 0.198\nsamples = 9\nvalue = [1, 8]\nclass = 非耀发", fillcolor="#52a9e8"] ;
407 -> 408 ;
409 [label="gini = 0.0\nsamples = 8\nvalue = [0, 8]\nclass = 非耀发", fillcolor="#399de5"] ;
408 -> 409 ;
410 [label="gini = 0.0\nsamples = 1\nvalue = [1, 0]\nclass = 耀发", fillcolor="#e58139"] ;
408 -> 410 ;
411 [label="fpr20 <= 0.283\ngini = 0.26\nsamples = 39\nvalue = [33, 6]\nclass = 耀发", fillcolor="#ea985d"] ;
407 -> 411 ;
412 [label="beyond1std <= 0.45\ngini = 0.111\nsamples = 34\nvalue = [32, 2]\nclass = 耀发", fillcolor="#e78945"] ;
411 -> 412 ;
413 [label="stetson_j <= -0.849\ngini = 0.444\nsamples = 6\nvalue = [4, 2]\nclass = 耀发", fillcolor="#f2c09c"] ;
412 -> 413 ;
414 [label="gini = 0.0\nsamples = 4\nvalue = [4, 0]\nclass = 耀发", fillcolor="#e58139"] ;
413 -> 414 ;
415 [label="gini = 0.0\nsamples = 2\nvalue = [0, 2]\nclass = 非耀发", fillcolor="#399de5"] ;
413 -> 415 ;
416 [label="gini = 0.0\nsamples = 28\nvalue = [28, 0]\nclass = 耀发", fillcolor="#e58139"] ;
412 -> 416 ;
417 [label="beyond1std <= 0.483\ngini = 0.32\nsamples = 5\nvalue = [1, 4]\nclass = 非耀发", fillcolor="#6ab6ec"] ;
411 -> 417 ;
418 [label="gini = 0.0\nsamples = 1\nvalue = [1, 0]\nclass = 耀发", fillcolor="#e58139"] ;
417 -> 418 ;
419 [label="gini = 0.0\nsamples = 4\nvalue = [0, 4]\nclass = 非耀发", fillcolor="#399de5"] ;
417 -> 419 ;
420 [label="stetson_k <= 0.871\ngini = 0.454\nsamples = 792\nvalue = [276, 516]\nclass = 非耀发", fillcolor="#a3d1f3"] ;
302 -> 420 ;
421 [label="fpr65 <= 0.843\ngini = 0.133\nsamples = 112\nvalue = [104, 8]\nclass = 耀发", fillcolor="#e78b48"] ;
420 -> 421 ;
422 [label="fpr80 <= 0.963\ngini = 0.488\nsamples = 19\nvalue = [11, 8]\nclass = 耀发", fillcolor="#f8ddc9"] ;
421 -> 422 ;
423 [label="gini = 0.0\nsamples = 9\nvalue = [9, 0]\nclass = 耀发", fillcolor="#e58139"] ;
422 -> 423 ;
424 [label="mad <= 0.855\ngini = 0.32\nsamples = 10\nvalue = [2, 8]\nclass = 非耀发", fillcolor="#6ab6ec"] ;
422 -> 424 ;
425 [label="gini = 0.0\nsamples = 8\nvalue = [0, 8]\nclass = 非耀发", fillcolor="#399de5"] ;
424 -> 425 ;
426 [label="gini = 0.0\nsamples = 2\nvalue = [2, 0]\nclass = 耀发", fillcolor="#e58139"] ;
424 -> 426 ;
427 [label="gini = 0.0\nsamples = 93\nvalue = [93, 0]\nclass = 耀发", fillcolor="#e58139"] ;
421 -> 427 ;
428 [label="fpr50 <= 0.786\ngini = 0.378\nsamples = 680\nvalue = [172, 508]\nclass = 非耀发", fillcolor="#7cbeee"] ;
420 -> 428 ;
429 [label="fpr65 <= 0.98\ngini = 0.324\nsamples = 638\nvalue = [130, 508]\nclass = 非耀发", fillcolor="#6cb6ec"] ;
428 -> 429 ;
430 [label="fpr80 <= 0.943\ngini = 0.287\nsamples = 615\nvalue = [107, 508]\nclass = 非耀发", fillcolor="#63b2ea"] ;
429 -> 430 ;
431 [label="sk <= -1.405\ngini = 0.361\nsamples = 38\nvalue = [29, 9]\nclass = 耀发", fillcolor="#eda876"] ;
430 -> 431 ;
432 [label="mad <= 1.031\ngini = 0.18\nsamples = 10\nvalue = [1, 9]\nclass = 非耀发", fillcolor="#4fa8e8"] ;
431 -> 432 ;
433 [label="gini = 0.0\nsamples = 9\nvalue = [0, 9]\nclass = 非耀发", fillcolor="#399de5"] ;
432 -> 433 ;
434 [label="gini = 0.0\nsamples = 1\nvalue = [1, 0]\nclass = 耀发", fillcolor="#e58139"] ;
432 -> 434 ;
435 [label="gini = 0.0\nsamples = 28\nvalue = [28, 0]\nclass = 耀发", fillcolor="#e58139"] ;
431 -> 435 ;
436 [label="fpr20 <= 0.351\ngini = 0.234\nsamples = 577\nvalue = [78, 499]\nclass = 非耀发", fillcolor="#58ace9"] ;
430 -> 436 ;
437 [label="skew <= -0.225\ngini = 0.189\nsamples = 548\nvalue = [58, 490]\nclass = 非耀发", fillcolor="#50a9e8"] ;
436 -> 437 ;
438 [label="gini = 0.0\nsamples = 6\nvalue = [6, 0]\nclass = 耀发", fillcolor="#e58139"] ;
437 -> 438 ;
439 [label="fpr80 <= 0.998\ngini = 0.173\nsamples = 542\nvalue = [52, 490]\nclass = 非耀发", fillcolor="#4ea7e8"] ;
437 -> 439 ;
440 [label="max_slope <= 0.631\ngini = 0.163\nsamples = 538\nvalue = [48, 490]\nclass = 非耀发", fillcolor="#4ca7e8"] ;
439 -> 440 ;
441 [label="fpr35 <= 0.503\ngini = 0.084\nsamples = 388\nvalue = [17, 371]\nclass = 非耀发", fillcolor="#42a1e6"] ;
440 -> 441 ;
442 [label="amp <= 3.475\ngini = 0.066\nsamples = 379\nvalue = [13, 366]\nclass = 非耀发", fillcolor="#40a0e6"] ;
441 -> 442 ;
443 [label="fpr50 <= 0.681\ngini = 0.061\nsamples = 378\nvalue = [12, 366]\nclass = 非耀发", fillcolor="#3fa0e6"] ;
442 -> 443 ;
444 [label="stetson_k <= 0.872\ngini = 0.048\nsamples = 368\nvalue = [9, 359]\nclass = 非耀发", fillcolor="#3e9fe6"] ;
443 -> 444 ;
445 [label="mad <= 0.878\ngini = 0.375\nsamples = 4\nvalue = [1, 3]\nclass = 非耀发", fillcolor="#7bbeee"] ;
444 -> 445 ;
446 [label="gini = 0.0\nsamples = 3\nvalue = [0, 3]\nclass = 非耀发", fillcolor="#399de5"] ;
445 -> 446 ;
447 [label="gini = 0.0\nsamples = 1\nvalue = [1, 0]\nclass = 耀发", fillcolor="#e58139"] ;
445 -> 447 ;
448 [label="fpr35 <= 0.442\ngini = 0.043\nsamples = 364\nvalue = [8, 356]\nclass = 非耀发", fillcolor="#3d9fe6"] ;
444 -> 448 ;
449 [label="max_slope <= 0.509\ngini = 0.015\nsamples = 263\nvalue = [2, 261]\nclass = 非耀发", fillcolor="#3b9ee5"] ;
448 -> 449 ;
450 [label="gini = 0.0\nsamples = 1\nvalue = [1, 0]\nclass = 耀发", fillcolor="#e58139"] ;
449 -> 450 ;
451 [label="stetson_k <= 0.874\ngini = 0.008\nsamples = 262\nvalue = [1, 261]\nclass = 非耀发", fillcolor="#3a9de5"] ;
449 -> 451 ;
452 [label="stetson_k <= 0.874\ngini = 0.105\nsamples = 18\nvalue = [1, 17]\nclass = 非耀发", fillcolor="#45a3e7"] ;
451 -> 452 ;
453 [label="gini = 0.0\nsamples = 17\nvalue = [0, 17]\nclass = 非耀发", fillcolor="#399de5"] ;
452 -> 453 ;
454 [label="gini = 0.0\nsamples = 1\nvalue = [1, 0]\nclass = 耀发", fillcolor="#e58139"] ;
452 -> 454 ;
455 [label="gini = 0.0\nsamples = 244\nvalue = [0, 244]\nclass = 非耀发", fillcolor="#399de5"] ;
451 -> 455 ;
456 [label="sk <= -1.373\ngini = 0.112\nsamples = 101\nvalue = [6, 95]\nclass = 非耀发", fillcolor="#46a3e7"] ;
448 -> 456 ;
457 [label="fpr20 <= 0.212\ngini = 0.021\nsamples = 96\nvalue = [1, 95]\nclass = 非耀发", fillcolor="#3b9ee5"] ;
456 -> 457 ;
458 [label="gini = 0.0\nsamples = 1\nvalue = [1, 0]\nclass = 耀发", fillcolor="#e58139"] ;
457 -> 458 ;
459 [label="gini = 0.0\nsamples = 95\nvalue = [0, 95]\nclass = 非耀发", fillcolor="#399de5"] ;
457 -> 459 ;
460 [label="gini = 0.0\nsamples = 5\nvalue = [5, 0]\nclass = 耀发", fillcolor="#e58139"] ;
456 -> 460 ;
461 [label="kurtosis <= -1.427\ngini = 0.42\nsamples = 10\nvalue = [3, 7]\nclass = 非耀发", fillcolor="#8ec7f0"] ;
443 -> 461 ;
462 [label="gini = 0.0\nsamples = 7\nvalue = [0, 7]\nclass = 非耀发", fillcolor="#399de5"] ;
461 -> 462 ;
463 [label="gini = 0.0\nsamples = 3\nvalue = [3, 0]\nclass = 耀发", fillcolor="#e58139"] ;
461 -> 463 ;
464 [label="gini = 0.0\nsamples = 1\nvalue = [1, 0]\nclass = 耀发", fillcolor="#e58139"] ;
442 -> 464 ;
465 [label="fpr20 <= 0.258\ngini = 0.494\nsamples = 9\nvalue = [4, 5]\nclass = 非耀发", fillcolor="#d7ebfa"] ;
441 -> 465 ;
466 [label="fpr80 <= 0.96\ngini = 0.32\nsamples = 5\nvalue = [4, 1]\nclass = 耀发", fillcolor="#eca06a"] ;
465 -> 466 ;
467 [label="gini = 0.0\nsamples = 1\nvalue = [0, 1]\nclass = 非耀发", fillcolor="#399de5"] ;
466 -> 467 ;
468 [label="gini = 0.0\nsamples = 4\nvalue = [4, 0]\nclass = 耀发", fillcolor="#e58139"] ;
466 -> 468 ;
469 [label="gini = 0.0\nsamples = 4\nvalue = [0, 4]\nclass = 非耀发", fillcolor="#399de5"] ;
465 -> 469 ;
470 [label="fpr80 <= 0.984\ngini = 0.328\nsamples = 150\nvalue = [31, 119]\nclass = 非耀发", fillcolor="#6db7ec"] ;
440 -> 470 ;
471 [label="beyond1std <= 0.35\ngini = 0.26\nsamples = 26\nvalue = [22, 4]\nclass = 耀发", fillcolor="#ea985d"] ;
470 -> 471 ;
472 [label="gini = 0.0\nsamples = 4\nvalue = [0, 4]\nclass = 非耀发", fillcolor="#399de5"] ;
471 -> 472 ;
473 [label="gini = 0.0\nsamples = 22\nvalue = [22, 0]\nclass = 耀发", fillcolor="#e58139"] ;
471 -> 473 ;
474 [label="fpr20 <= 0.207\ngini = 0.135\nsamples = 124\nvalue = [9, 115]\nclass = 非耀发", fillcolor="#48a5e7"] ;
470 -> 474 ;
475 [label="gini = 0.0\nsamples = 5\nvalue = [5, 0]\nclass = 耀发", fillcolor="#e58139"] ;
474 -> 475 ;
476 [label="stetson_j <= -0.353\ngini = 0.065\nsamples = 119\nvalue = [4, 115]\nclass = 非耀发", fillcolor="#40a0e6"] ;
474 -> 476 ;
477 [label="stetson_k <= 0.875\ngini = 0.034\nsamples = 117\nvalue = [2, 115]\nclass = 非耀发", fillcolor="#3c9fe5"] ;
476 -> 477 ;
478 [label="gini = 0.0\nsamples = 2\nvalue = [2, 0]\nclass = 耀发", fillcolor="#e58139"] ;
477 -> 478 ;
479 [label="gini = 0.0\nsamples = 115\nvalue = [0, 115]\nclass = 非耀发", fillcolor="#399de5"] ;
477 -> 479 ;
480 [label="gini = 0.0\nsamples = 2\nvalue = [2, 0]\nclass = 耀发", fillcolor="#e58139"] ;
476 -> 480 ;
481 [label="gini = 0.0\nsamples = 4\nvalue = [4, 0]\nclass = 耀发", fillcolor="#e58139"] ;
439 -> 481 ;
482 [label="sk <= -1.498\ngini = 0.428\nsamples = 29\nvalue = [20, 9]\nclass = 耀发", fillcolor="#f1ba92"] ;
436 -> 482 ;
483 [label="gini = 0.0\nsamples = 9\nvalue = [0, 9]\nclass = 非耀发", fillcolor="#399de5"] ;
482 -> 483 ;
484 [label="gini = 0.0\nsamples = 20\nvalue = [20, 0]\nclass = 耀发", fillcolor="#e58139"] ;
482 -> 484 ;
485 [label="gini = 0.0\nsamples = 23\nvalue = [23, 0]\nclass = 耀发", fillcolor="#e58139"] ;
429 -> 485 ;
486 [label="gini = 0.0\nsamples = 42\nvalue = [42, 0]\nclass = 耀发", fillcolor="#e58139"] ;
428 -> 486 ;
487 [label="stetson_j <= 0.82\ngini = 0.054\nsamples = 181\nvalue = [176, 5]\nclass = 耀发", fillcolor="#e6853f"] ;
245 -> 487 ;
488 [label="gini = 0.0\nsamples = 161\nvalue = [161, 0]\nclass = 耀发", fillcolor="#e58139"] ;
487 -> 488 ;
489 [label="max_slope <= 0.474\ngini = 0.375\nsamples = 20\nvalue = [15, 5]\nclass = 耀发", fillcolor="#eeab7b"] ;
487 -> 489 ;
490 [label="skew <= -0.185\ngini = 0.408\nsamples = 7\nvalue = [2, 5]\nclass = 非耀发", fillcolor="#88c4ef"] ;
489 -> 490 ;
491 [label="gini = 0.0\nsamples = 5\nvalue = [0, 5]\nclass = 非耀发", fillcolor="#399de5"] ;
490 -> 491 ;
492 [label="gini = 0.0\nsamples = 2\nvalue = [2, 0]\nclass = 耀发", fillcolor="#e58139"] ;
490 -> 492 ;
493 [label="gini = 0.0\nsamples = 13\nvalue = [13, 0]\nclass = 耀发", fillcolor="#e58139"] ;
489 -> 493 ;
494 [label="fpr35 <= 0.551\ngini = 0.047\nsamples = 207\nvalue = [202, 5]\nclass = 耀发", fillcolor="#e6843e"] ;
202 -> 494 ;
495 [label="fpr50 <= 0.734\ngini = 0.271\nsamples = 31\nvalue = [26, 5]\nclass = 耀发", fillcolor="#ea995f"] ;
494 -> 495 ;
496 [label="gini = 0.0\nsamples = 22\nvalue = [22, 0]\nclass = 耀发", fillcolor="#e58139"] ;
495 -> 496 ;
497 [label="fpr65 <= 0.914\ngini = 0.494\nsamples = 9\nvalue = [4, 5]\nclass = 非耀发", fillcolor="#d7ebfa"] ;
495 -> 497 ;
498 [label="fpr50 <= 0.833\ngini = 0.278\nsamples = 6\nvalue = [1, 5]\nclass = 非耀发", fillcolor="#61b1ea"] ;
497 -> 498 ;
499 [label="gini = 0.0\nsamples = 5\nvalue = [0, 5]\nclass = 非耀发", fillcolor="#399de5"] ;
498 -> 499 ;
500 [label="gini = 0.0\nsamples = 1\nvalue = [1, 0]\nclass = 耀发", fillcolor="#e58139"] ;
498 -> 500 ;
501 [label="gini = 0.0\nsamples = 3\nvalue = [3, 0]\nclass = 耀发", fillcolor="#e58139"] ;
497 -> 501 ;
502 [label="gini = 0.0\nsamples = 176\nvalue = [176, 0]\nclass = 耀发", fillcolor="#e58139"] ;
494 -> 502 ;
503 [label="kurtosis <= -0.93\ngini = 0.317\nsamples = 3741\nvalue = [3001, 740]\nclass = 耀发", fillcolor="#eba06a"] ;
195 -> 503 ;
504 [label="fpr35 <= 0.537\ngini = 0.467\nsamples = 1968\nvalue = [1237, 731]\nclass = 耀发", fillcolor="#f4cbae"] ;
503 -> 504 ;
505 [label="fpr65 <= 0.766\ngini = 0.5\nsamples = 1469\nvalue = [744, 725]\nclass = 耀发", fillcolor="#fefcfa"] ;
504 -> 505 ;
506 [label="max_slope <= 0.78\ngini = 0.083\nsamples = 394\nvalue = [377, 17]\nclass = 耀发", fillcolor="#e68742"] ;
505 -> 506 ;
507 [label="fpr65 <= 0.757\ngini = 0.043\nsamples = 367\nvalue = [359, 8]\nclass = 耀发", fillcolor="#e6843d"] ;
506 -> 507 ;
508 [label="max_slope <= 0.776\ngini = 0.006\nsamples = 347\nvalue = [346, 1]\nclass = 耀发", fillcolor="#e5813a"] ;
507 -> 508 ;
509 [label="gini = 0.0\nsamples = 338\nvalue = [338, 0]\nclass = 耀发", fillcolor="#e58139"] ;
508 -> 509 ;
510 [label="max_slope <= 0.776\ngini = 0.198\nsamples = 9\nvalue = [8, 1]\nclass = 耀发", fillcolor="#e89152"] ;
508 -> 510 ;
511 [label="gini = 0.0\nsamples = 1\nvalue = [0, 1]\nclass = 非耀发", fillcolor="#399de5"] ;
510 -> 511 ;
512 [label="gini = 0.0\nsamples = 8\nvalue = [8, 0]\nclass = 耀发", fillcolor="#e58139"] ;
510 -> 512 ;
513 [label="stetson_j <= -1.642\ngini = 0.455\nsamples = 20\nvalue = [13, 7]\nclass = 耀发", fillcolor="#f3c5a4"] ;
507 -> 513 ;
514 [label="gini = 0.0\nsamples = 10\nvalue = [10, 0]\nclass = 耀发", fillcolor="#e58139"] ;
513 -> 514 ;
515 [label="skew <= 0.34\ngini = 0.42\nsamples = 10\nvalue = [3, 7]\nclass = 非耀发", fillcolor="#8ec7f0"] ;
513 -> 515 ;
516 [label="gini = 0.0\nsamples = 3\nvalue = [3, 0]\nclass = 耀发", fillcolor="#e58139"] ;
515 -> 516 ;
517 [label="gini = 0.0\nsamples = 7\nvalue = [0, 7]\nclass = 非耀发", fillcolor="#399de5"] ;
515 -> 517 ;
518 [label="stetson_k <= 0.88\ngini = 0.444\nsamples = 27\nvalue = [18, 9]\nclass = 耀发", fillcolor="#f2c09c"] ;
506 -> 518 ;
519 [label="gini = 0.0\nsamples = 13\nvalue = [13, 0]\nclass = 耀发", fillcolor="#e58139"] ;
518 -> 519 ;
520 [label="amp <= 3.476\ngini = 0.459\nsamples = 14\nvalue = [5, 9]\nclass = 非耀发", fillcolor="#a7d3f3"] ;
518 -> 520 ;
521 [label="amp <= 3.257\ngini = 0.298\nsamples = 11\nvalue = [2, 9]\nclass = 非耀发", fillcolor="#65b3eb"] ;
520 -> 521 ;
522 [label="gini = 0.0\nsamples = 2\nvalue = [2, 0]\nclass = 耀发", fillcolor="#e58139"] ;
521 -> 522 ;
523 [label="gini = 0.0\nsamples = 9\nvalue = [0, 9]\nclass = 非耀发", fillcolor="#399de5"] ;
521 -> 523 ;
524 [label="gini = 0.0\nsamples = 3\nvalue = [3, 0]\nclass = 耀发", fillcolor="#e58139"] ;
520 -> 524 ;
525 [label="fpr35 <= 0.415\ngini = 0.45\nsamples = 1075\nvalue = [367, 708]\nclass = 非耀发", fillcolor="#a0d0f2"] ;
505 -> 525 ;
526 [label="gini = 0.0\nsamples = 116\nvalue = [116, 0]\nclass = 耀发", fillcolor="#e58139"] ;
525 -> 526 ;
527 [label="fpr50 <= 0.848\ngini = 0.386\nsamples = 959\nvalue = [251, 708]\nclass = 非耀发", fillcolor="#7fc0ee"] ;
525 -> 527 ;
528 [label="fpr80 <= 0.99\ngini = 0.336\nsamples = 900\nvalue = [192, 708]\nclass = 非耀发", fillcolor="#6fb8ec"] ;
527 -> 528 ;
529 [label="fpr80 <= 0.938\ngini = 0.3\nsamples = 867\nvalue = [159, 708]\nclass = 非耀发", fillcolor="#65b3eb"] ;
528 -> 529 ;
530 [label="fpr65 <= 0.781\ngini = 0.201\nsamples = 44\nvalue = [39, 5]\nclass = 耀发", fillcolor="#e89152"] ;
529 -> 530 ;
531 [label="fpr50 <= 0.509\ngini = 0.494\nsamples = 9\nvalue = [4, 5]\nclass = 非耀发", fillcolor="#d7ebfa"] ;
530 -> 531 ;
532 [label="gini = 0.0\nsamples = 5\nvalue = [0, 5]\nclass = 非耀发", fillcolor="#399de5"] ;
531 -> 532 ;
533 [label="gini = 0.0\nsamples = 4\nvalue = [4, 0]\nclass = 耀发", fillcolor="#e58139"] ;
531 -> 533 ;
534 [label="gini = 0.0\nsamples = 35\nvalue = [35, 0]\nclass = 耀发", fillcolor="#e58139"] ;
530 -> 534 ;
535 [label="stetson_k <= 0.859\ngini = 0.249\nsamples = 823\nvalue = [120, 703]\nclass = 非耀发", fillcolor="#5baee9"] ;
529 -> 535 ;
536 [label="gini = 0.0\nsamples = 20\nvalue = [20, 0]\nclass = 耀发", fillcolor="#e58139"] ;
535 -> 536 ;
537 [label="mad <= 0.93\ngini = 0.218\nsamples = 803\nvalue = [100, 703]\nclass = 非耀发", fillcolor="#55abe9"] ;
535 -> 537 ;
538 [label="stetson_k <= 0.879\ngini = 0.187\nsamples = 785\nvalue = [82, 703]\nclass = 非耀发", fillcolor="#50a8e8"] ;
537 -> 538 ;
539 [label="max_slope <= 0.436\ngini = 0.109\nsamples = 671\nvalue = [39, 632]\nclass = 非耀发", fillcolor="#45a3e7"] ;
538 -> 539 ;
540 [label="gini = 0.0\nsamples = 7\nvalue = [7, 0]\nclass = 耀发", fillcolor="#e58139"] ;
539 -> 540 ;
541 [label="fpr20 <= 0.387\ngini = 0.092\nsamples = 664\nvalue = [32, 632]\nclass = 非耀发", fillcolor="#43a2e6"] ;
539 -> 541 ;
542 [label="amp <= 3.443\ngini = 0.084\nsamples = 661\nvalue = [29, 632]\nclass = 非耀发", fillcolor="#42a1e6"] ;
541 -> 542 ;
543 [label="max_slope <= 0.758\ngini = 0.076\nsamples = 658\nvalue = [26, 632]\nclass = 非耀发", fillcolor="#41a1e6"] ;
542 -> 543 ;
544 [label="amp <= 3.163\ngini = 0.07\nsamples = 656\nvalue = [24, 632]\nclass = 非耀发", fillcolor="#41a1e6"] ;
543 -> 544 ;
545 [label="fpr20 <= 0.363\ngini = 0.029\nsamples = 536\nvalue = [8, 528]\nclass = 非耀发", fillcolor="#3c9ee5"] ;
544 -> 545 ;
546 [label="beyond1std <= 0.283\ngini = 0.022\nsamples = 534\nvalue = [6, 528]\nclass = 非耀发", fillcolor="#3b9ee5"] ;
545 -> 546 ;
547 [label="gini = 0.0\nsamples = 1\nvalue = [1, 0]\nclass = 耀发", fillcolor="#e58139"] ;
546 -> 547 ;
548 [label="mad <= 0.531\ngini = 0.019\nsamples = 533\nvalue = [5, 528]\nclass = 非耀发", fillcolor="#3b9ee5"] ;
546 -> 548 ;
549 [label="gini = 0.0\nsamples = 1\nvalue = [1, 0]\nclass = 耀发", fillcolor="#e58139"] ;
548 -> 549 ;
550 [label="beyond1std <= 0.417\ngini = 0.015\nsamples = 532\nvalue = [4, 528]\nclass = 非耀发", fillcolor="#3b9ee5"] ;
548 -> 550 ;
551 [label="amp <= 3.096\ngini = 0.124\nsamples = 30\nvalue = [2, 28]\nclass = 非耀发", fillcolor="#47a4e7"] ;
550 -> 551 ;
552 [label="gini = 0.0\nsamples = 2\nvalue = [2, 0]\nclass = 耀发", fillcolor="#e58139"] ;
551 -> 552 ;
553 [label="gini = 0.0\nsamples = 28\nvalue = [0, 28]\nclass = 非耀发", fillcolor="#399de5"] ;
551 -> 553 ;
554 [label="mad <= 0.613\ngini = 0.008\nsamples = 502\nvalue = [2, 500]\nclass = 非耀发", fillcolor="#3a9de5"] ;
550 -> 554 ;
555 [label="gini = 0.0\nsamples = 1\nvalue = [1, 0]\nclass = 耀发", fillcolor="#e58139"] ;
554 -> 555 ;
556 [label="fpr35 <= 0.505\ngini = 0.004\nsamples = 501\nvalue = [1, 500]\nclass = 非耀发", fillcolor="#399de5"] ;
554 -> 556 ;
557 [label="gini = 0.0\nsamples = 483\nvalue = [0, 483]\nclass = 非耀发", fillcolor="#399de5"] ;
556 -> 557 ;
558 [label="fpr65 <= 0.919\ngini = 0.105\nsamples = 18\nvalue = [1, 17]\nclass = 非耀发", fillcolor="#45a3e7"] ;
556 -> 558 ;
559 [label="gini = 0.0\nsamples = 17\nvalue = [0, 17]\nclass = 非耀发", fillcolor="#399de5"] ;
558 -> 559 ;
560 [label="gini = 0.0\nsamples = 1\nvalue = [1, 0]\nclass = 耀发", fillcolor="#e58139"] ;
558 -> 560 ;
561 [label="gini = 0.0\nsamples = 2\nvalue = [2, 0]\nclass = 耀发", fillcolor="#e58139"] ;
545 -> 561 ;
562 [label="fpr50 <= 0.532\ngini = 0.231\nsamples = 120\nvalue = [16, 104]\nclass = 非耀发", fillcolor="#57ace9"] ;
544 -> 562 ;
563 [label="skew <= 0.319\ngini = 0.056\nsamples = 104\nvalue = [3, 101]\nclass = 非耀发", fillcolor="#3fa0e6"] ;
562 -> 563 ;
564 [label="gini = 0.0\nsamples = 3\nvalue = [3, 0]\nclass = 耀发", fillcolor="#e58139"] ;
563 -> 564 ;
565 [label="gini = 0.0\nsamples = 101\nvalue = [0, 101]\nclass = 非耀发", fillcolor="#399de5"] ;
563 -> 565 ;
566 [label="beyond1std <= 0.367\ngini = 0.305\nsamples = 16\nvalue = [13, 3]\nclass = 耀发", fillcolor="#eb9e67"] ;
562 -> 566 ;
567 [label="gini = 0.0\nsamples = 3\nvalue = [0, 3]\nclass = 非耀发", fillcolor="#399de5"] ;
566 -> 567 ;
568 [label="gini = 0.0\nsamples = 13\nvalue = [13, 0]\nclass = 耀发", fillcolor="#e58139"] ;
566 -> 568 ;
569 [label="gini = 0.0\nsamples = 2\nvalue = [2, 0]\nclass = 耀发", fillcolor="#e58139"] ;
543 -> 569 ;
570 [label="gini = 0.0\nsamples = 3\nvalue = [3, 0]\nclass = 耀发", fillcolor="#e58139"] ;
542 -> 570 ;
571 [label="gini = 0.0\nsamples = 3\nvalue = [3, 0]\nclass = 耀发", fillcolor="#e58139"] ;
541 -> 571 ;
572 [label="max_slope <= 0.503\ngini = 0.47\nsamples = 114\nvalue = [43, 71]\nclass = 非耀发", fillcolor="#b1d8f5"] ;
538 -> 572 ;
573 [label="fpr50 <= 0.678\ngini = 0.2\nsamples = 80\nvalue = [9, 71]\nclass = 非耀发", fillcolor="#52a9e8"] ;
572 -> 573 ;
574 [label="gini = 0.0\nsamples = 8\nvalue = [8, 0]\nclass = 耀发", fillcolor="#e58139"] ;
573 -> 574 ;
575 [label="skew <= 0.626\ngini = 0.027\nsamples = 72\nvalue = [1, 71]\nclass = 非耀发", fillcolor="#3c9ee5"] ;
573 -> 575 ;
576 [label="gini = 0.0\nsamples = 71\nvalue = [0, 71]\nclass = 非耀发", fillcolor="#399de5"] ;
575 -> 576 ;
577 [label="gini = 0.0\nsamples = 1\nvalue = [1, 0]\nclass = 耀发", fillcolor="#e58139"] ;
575 -> 577 ;
578 [label="gini = 0.0\nsamples = 34\nvalue = [34, 0]\nclass = 耀发", fillcolor="#e58139"] ;
572 -> 578 ;
579 [label="gini = 0.0\nsamples = 18\nvalue = [18, 0]\nclass = 耀发", fillcolor="#e58139"] ;
537 -> 579 ;
580 [label="gini = 0.0\nsamples = 33\nvalue = [33, 0]\nclass = 耀发", fillcolor="#e58139"] ;
528 -> 580 ;
581 [label="gini = 0.0\nsamples = 59\nvalue = [59, 0]\nclass = 耀发", fillcolor="#e58139"] ;
527 -> 581 ;
582 [label="kurtosis <= -0.935\ngini = 0.024\nsamples = 499\nvalue = [493, 6]\nclass = 耀发", fillcolor="#e5833b"] ;
504 -> 582 ;
583 [label="gini = 0.0\nsamples = 486\nvalue = [486, 0]\nclass = 耀发", fillcolor="#e58139"] ;
582 -> 583 ;
584 [label="fpr50 <= 0.676\ngini = 0.497\nsamples = 13\nvalue = [7, 6]\nclass = 耀发", fillcolor="#fbede3"] ;
582 -> 584 ;
585 [label="gini = 0.0\nsamples = 6\nvalue = [0, 6]\nclass = 非耀发", fillcolor="#399de5"] ;
584 -> 585 ;
586 [label="gini = 0.0\nsamples = 7\nvalue = [7, 0]\nclass = 耀发", fillcolor="#e58139"] ;
584 -> 586 ;
587 [label="mad <= 0.886\ngini = 0.01\nsamples = 1773\nvalue = [1764, 9]\nclass = 耀发", fillcolor="#e5823a"] ;
503 -> 587 ;
588 [label="gini = 0.0\nsamples = 1698\nvalue = [1698, 0]\nclass = 耀发", fillcolor="#e58139"] ;
587 -> 588 ;
589 [label="mad <= 0.889\ngini = 0.211\nsamples = 75\nvalue = [66, 9]\nclass = 耀发", fillcolor="#e99254"] ;
587 -> 589 ;
590 [label="fpr35 <= 0.468\ngini = 0.346\nsamples = 9\nvalue = [2, 7]\nclass = 非耀发", fillcolor="#72b9ec"] ;
589 -> 590 ;
591 [label="gini = 0.0\nsamples = 2\nvalue = [2, 0]\nclass = 耀发", fillcolor="#e58139"] ;
590 -> 591 ;
592 [label="gini = 0.0\nsamples = 7\nvalue = [0, 7]\nclass = 非耀发", fillcolor="#399de5"] ;
590 -> 592 ;
593 [label="sk <= -0.854\ngini = 0.059\nsamples = 66\nvalue = [64, 2]\nclass = 耀发", fillcolor="#e6853f"] ;
589 -> 593 ;
594 [label="kurtosis <= -0.921\ngini = 0.48\nsamples = 5\nvalue = [3, 2]\nclass = 耀发", fillcolor="#f6d5bd"] ;
593 -> 594 ;
595 [label="gini = 0.0\nsamples = 3\nvalue = [3, 0]\nclass = 耀发", fillcolor="#e58139"] ;
594 -> 595 ;
596 [label="gini = 0.0\nsamples = 2\nvalue = [0, 2]\nclass = 非耀发", fillcolor="#399de5"] ;
594 -> 596 ;
597 [label="gini = 0.0\nsamples = 61\nvalue = [61, 0]\nclass = 耀发", fillcolor="#e58139"] ;
593 -> 597 ;
598 [label="fpr65 <= 0.757\ngini = 0.15\nsamples = 22876\nvalue = [21002, 1874]\nclass = 耀发", fillcolor="#e78c4b"] ;
194 -> 598 ;
599 [label="skew <= -0.184\ngini = 0.28\nsamples = 10645\nvalue = [8854, 1791]\nclass = 耀发", fillcolor="#ea9a61"] ;
598 -> 599 ;
600 [label="beyond1std <= 0.383\ngini = 0.476\nsamples = 2020\nvalue = [1233, 787]\nclass = 耀发", fillcolor="#f6d1b7"] ;
599 -> 600 ;
601 [label="fpr20 <= 0.164\ngini = 0.483\nsamples = 1196\nvalue = [488, 708]\nclass = 非耀发", fillcolor="#c1e1f7"] ;
600 -> 601 ;
602 [label="mad <= 0.805\ngini = 0.412\nsamples = 993\nvalue = [288, 705]\nclass = 非耀发", fillcolor="#8ac5f0"] ;
601 -> 602 ;
603 [label="fpr20 <= 0.023\ngini = 0.346\nsamples = 907\nvalue = [202, 705]\nclass = 非耀发", fillcolor="#72b9ec"] ;
602 -> 603 ;
604 [label="gini = 0.0\nsamples = 59\nvalue = [59, 0]\nclass = 耀发", fillcolor="#e58139"] ;
603 -> 604 ;
605 [label="fpr80 <= 0.954\ngini = 0.28\nsamples = 848\nvalue = [143, 705]\nclass = 非耀发", fillcolor="#61b1ea"] ;
603 -> 605 ;
606 [label="fpr35 <= 0.291\ngini = 0.229\nsamples = 812\nvalue = [107, 705]\nclass = 非耀发", fillcolor="#57ace9"] ;
605 -> 606 ;
607 [label="stetson_j <= -6.606\ngini = 0.197\nsamples = 793\nvalue = [88, 705]\nclass = 非耀发", fillcolor="#52a9e8"] ;
606 -> 607 ;
608 [label="fpr50 <= 0.202\ngini = 0.188\nsamples = 19\nvalue = [17, 2]\nclass = 耀发", fillcolor="#e89050"] ;
607 -> 608 ;
609 [label="fpr20 <= 0.07\ngini = 0.5\nsamples = 4\nvalue = [2, 2]\nclass = 耀发", fillcolor="#ffffff"] ;
608 -> 609 ;
610 [label="gini = 0.0\nsamples = 2\nvalue = [2, 0]\nclass = 耀发", fillcolor="#e58139"] ;
609 -> 610 ;
611 [label="gini = 0.0\nsamples = 2\nvalue = [0, 2]\nclass = 非耀发", fillcolor="#399de5"] ;
609 -> 611 ;
612 [label="gini = 0.0\nsamples = 15\nvalue = [15, 0]\nclass = 耀发", fillcolor="#e58139"] ;
608 -> 612 ;
613 [label="fpr80 <= 0.532\ngini = 0.167\nsamples = 774\nvalue = [71, 703]\nclass = 非耀发", fillcolor="#4da7e8"] ;
607 -> 613 ;
614 [label="gini = 0.0\nsamples = 6\nvalue = [6, 0]\nclass = 耀发", fillcolor="#e58139"] ;
613 -> 614 ;
615 [label="mad <= 0.71\ngini = 0.155\nsamples = 768\nvalue = [65, 703]\nclass = 非耀发", fillcolor="#4ba6e7"] ;
613 -> 615 ;
616 [label="fpr50 <= 0.451\ngini = 0.101\nsamples = 654\nvalue = [35, 619]\nclass = 非耀发", fillcolor="#44a3e6"] ;
615 -> 616 ;
617 [label="max_slope <= 1.836\ngini = 0.093\nsamples = 651\nvalue = [32, 619]\nclass = 非耀发", fillcolor="#43a2e6"] ;
616 -> 617 ;
618 [label="stetson_k <= 0.737\ngini = 0.086\nsamples = 648\nvalue = [29, 619]\nclass = 非耀发", fillcolor="#42a2e6"] ;
617 -> 618 ;
619 [label="gini = 0.0\nsamples = 1\nvalue = [1, 0]\nclass = 耀发", fillcolor="#e58139"] ;
618 -> 619 ;
620 [label="kurtosis <= -1.112\ngini = 0.083\nsamples = 647\nvalue = [28, 619]\nclass = 非耀发", fillcolor="#42a1e6"] ;
618 -> 620 ;
621 [label="gini = 0.0\nsamples = 1\nvalue = [1, 0]\nclass = 耀发", fillcolor="#e58139"] ;
620 -> 621 ;
622 [label="fpr50 <= 0.29\ngini = 0.08\nsamples = 646\nvalue = [27, 619]\nclass = 非耀发", fillcolor="#42a1e6"] ;
620 -> 622 ;
623 [label="fpr35 <= 0.158\ngini = 0.171\nsamples = 201\nvalue = [19, 182]\nclass = 非耀发", fillcolor="#4ea7e8"] ;
622 -> 623 ;
624 [label="fpr65 <= 0.464\ngini = 0.062\nsamples = 188\nvalue = [6, 182]\nclass = 非耀发", fillcolor="#40a0e6"] ;
623 -> 624 ;
625 [label="fpr65 <= 0.208\ngini = 0.032\nsamples = 185\nvalue = [3, 182]\nclass = 非耀发", fillcolor="#3c9fe5"] ;
624 -> 625 ;
626 [label="stetson_k <= 0.761\ngini = 0.444\nsamples = 3\nvalue = [1, 2]\nclass = 非耀发", fillcolor="#9ccef2"] ;
625 -> 626 ;
627 [label="gini = 0.0\nsamples = 2\nvalue = [0, 2]\nclass = 非耀发", fillcolor="#399de5"] ;
626 -> 627 ;
628 [label="gini = 0.0\nsamples = 1\nvalue = [1, 0]\nclass = 耀发", fillcolor="#e58139"] ;
626 -> 628 ;
629 [label="max_slope <= 0.897\ngini = 0.022\nsamples = 182\nvalue = [2, 180]\nclass = 非耀发", fillcolor="#3b9ee5"] ;
625 -> 629 ;
630 [label="fpr65 <= 0.382\ngini = 0.32\nsamples = 5\nvalue = [1, 4]\nclass = 非耀发", fillcolor="#6ab6ec"] ;
629 -> 630 ;
631 [label="gini = 0.0\nsamples = 1\nvalue = [1, 0]\nclass = 耀发", fillcolor="#e58139"] ;
630 -> 631 ;
632 [label="gini = 0.0\nsamples = 4\nvalue = [0, 4]\nclass = 非耀发", fillcolor="#399de5"] ;
630 -> 632 ;
633 [label="skew <= -0.459\ngini = 0.011\nsamples = 177\nvalue = [1, 176]\nclass = 非耀发", fillcolor="#3a9ee5"] ;
629 -> 633 ;
634 [label="mad <= 0.608\ngini = 0.1\nsamples = 19\nvalue = [1, 18]\nclass = 非耀发", fillcolor="#44a2e6"] ;
633 -> 634 ;
635 [label="gini = 0.0\nsamples = 1\nvalue = [1, 0]\nclass = 耀发", fillcolor="#e58139"] ;
634 -> 635 ;
636 [label="gini = 0.0\nsamples = 18\nvalue = [0, 18]\nclass = 非耀发", fillcolor="#399de5"] ;
634 -> 636 ;
637 [label="gini = 0.0\nsamples = 158\nvalue = [0, 158]\nclass = 非耀发", fillcolor="#399de5"] ;
633 -> 637 ;
638 [label="gini = 0.0\nsamples = 3\nvalue = [3, 0]\nclass = 耀发", fillcolor="#e58139"] ;
624 -> 638 ;
639 [label="gini = 0.0\nsamples = 13\nvalue = [13, 0]\nclass = 耀发", fillcolor="#e58139"] ;
623 -> 639 ;
640 [label="fpr80 <= 0.829\ngini = 0.035\nsamples = 445\nvalue = [8, 437]\nclass = 非耀发", fillcolor="#3d9fe5"] ;
622 -> 640 ;
641 [label="gini = 0.0\nsamples = 3\nvalue = [3, 0]\nclass = 耀发", fillcolor="#e58139"] ;
640 -> 641 ;
642 [label="stetson_k <= 0.798\ngini = 0.022\nsamples = 442\nvalue = [5, 437]\nclass = 非耀发", fillcolor="#3b9ee5"] ;
640 -> 642 ;
643 [label="gini = 0.0\nsamples = 1\nvalue = [1, 0]\nclass = 耀发", fillcolor="#e58139"] ;
642 -> 643 ;
644 [label="fpr65 <= 0.391\ngini = 0.018\nsamples = 441\nvalue = [4, 437]\nclass = 非耀发", fillcolor="#3b9ee5"] ;
642 -> 644 ;
645 [label="mad <= 0.61\ngini = 0.32\nsamples = 5\nvalue = [1, 4]\nclass = 非耀发", fillcolor="#6ab6ec"] ;
644 -> 645 ;
646 [label="gini = 0.0\nsamples = 4\nvalue = [0, 4]\nclass = 非耀发", fillcolor="#399de5"] ;
645 -> 646 ;
647 [label="gini = 0.0\nsamples = 1\nvalue = [1, 0]\nclass = 耀发", fillcolor="#e58139"] ;
645 -> 647 ;
648 [label="max_slope <= 0.853\ngini = 0.014\nsamples = 436\nvalue = [3, 433]\nclass = 非耀发", fillcolor="#3a9ee5"] ;
644 -> 648 ;
649 [label="fpr35 <= 0.176\ngini = 0.133\nsamples = 28\nvalue = [2, 26]\nclass = 非耀发", fillcolor="#48a5e7"] ;
648 -> 649 ;
650 [label="gini = 0.0\nsamples = 26\nvalue = [0, 26]\nclass = 非耀发", fillcolor="#399de5"] ;
649 -> 650 ;
651 [label="gini = 0.0\nsamples = 2\nvalue = [2, 0]\nclass = 耀发", fillcolor="#e58139"] ;
649 -> 651 ;
652 [label="fpr35 <= 0.231\ngini = 0.005\nsamples = 408\nvalue = [1, 407]\nclass = 非耀发", fillcolor="#399de5"] ;
648 -> 652 ;
653 [label="gini = 0.0\nsamples = 381\nvalue = [0, 381]\nclass = 非耀发", fillcolor="#399de5"] ;
652 -> 653 ;
654 [label="beyond1std <= 0.35\ngini = 0.071\nsamples = 27\nvalue = [1, 26]\nclass = 非耀发", fillcolor="#41a1e6"] ;
652 -> 654 ;
655 [label="gini = 0.0\nsamples = 26\nvalue = [0, 26]\nclass = 非耀发", fillcolor="#399de5"] ;
654 -> 655 ;
656 [label="gini = 0.0\nsamples = 1\nvalue = [1, 0]\nclass = 耀发", fillcolor="#e58139"] ;
654 -> 656 ;
657 [label="gini = 0.0\nsamples = 3\nvalue = [3, 0]\nclass = 耀发", fillcolor="#e58139"] ;
617 -> 657 ;
658 [label="gini = 0.0\nsamples = 3\nvalue = [3, 0]\nclass = 耀发", fillcolor="#e58139"] ;
616 -> 658 ;
659 [label="fpr80 <= 0.81\ngini = 0.388\nsamples = 114\nvalue = [30, 84]\nclass = 非耀发", fillcolor="#80c0ee"] ;
615 -> 659 ;
660 [label="gini = 0.0\nsamples = 14\nvalue = [14, 0]\nclass = 耀发", fillcolor="#e58139"] ;
659 -> 660 ;
661 [label="fpr20 <= 0.099\ngini = 0.269\nsamples = 100\nvalue = [16, 84]\nclass = 非耀发", fillcolor="#5fb0ea"] ;
659 -> 661 ;
662 [label="gini = 0.0\nsamples = 7\nvalue = [7, 0]\nclass = 耀发", fillcolor="#e58139"] ;
661 -> 662 ;
663 [label="max_slope <= 1.227\ngini = 0.175\nsamples = 93\nvalue = [9, 84]\nclass = 非耀发", fillcolor="#4ea8e8"] ;
661 -> 663 ;
664 [label="fpr20 <= 0.148\ngini = 0.124\nsamples = 90\nvalue = [6, 84]\nclass = 非耀发", fillcolor="#47a4e7"] ;
663 -> 664 ;
665 [label="amp <= 3.277\ngini = 0.067\nsamples = 87\nvalue = [3, 84]\nclass = 非耀发", fillcolor="#40a0e6"] ;
664 -> 665 ;
666 [label="gini = 0.0\nsamples = 1\nvalue = [1, 0]\nclass = 耀发", fillcolor="#e58139"] ;
665 -> 666 ;
667 [label="amp <= 3.834\ngini = 0.045\nsamples = 86\nvalue = [2, 84]\nclass = 非耀发", fillcolor="#3e9fe6"] ;
665 -> 667 ;
668 [label="max_slope <= 0.829\ngini = 0.023\nsamples = 85\nvalue = [1, 84]\nclass = 非耀发", fillcolor="#3b9ee5"] ;
667 -> 668 ;
669 [label="gini = 0.0\nsamples = 1\nvalue = [1, 0]\nclass = 耀发", fillcolor="#e58139"] ;
668 -> 669 ;
670 [label="gini = 0.0\nsamples = 84\nvalue = [0, 84]\nclass = 非耀发", fillcolor="#399de5"] ;
668 -> 670 ;
671 [label="gini = 0.0\nsamples = 1\nvalue = [1, 0]\nclass = 耀发", fillcolor="#e58139"] ;
667 -> 671 ;
672 [label="gini = 0.0\nsamples = 3\nvalue = [3, 0]\nclass = 耀发", fillcolor="#e58139"] ;
664 -> 672 ;
673 [label="gini = 0.0\nsamples = 3\nvalue = [3, 0]\nclass = 耀发", fillcolor="#e58139"] ;
663 -> 673 ;
674 [label="gini = 0.0\nsamples = 19\nvalue = [19, 0]\nclass = 耀发", fillcolor="#e58139"] ;
606 -> 674 ;
675 [label="gini = 0.0\nsamples = 36\nvalue = [36, 0]\nclass = 耀发", fillcolor="#e58139"] ;
605 -> 675 ;
676 [label="gini = 0.0\nsamples = 86\nvalue = [86, 0]\nclass = 耀发", fillcolor="#e58139"] ;
602 -> 676 ;
677 [label="fpr35 <= 0.183\ngini = 0.029\nsamples = 203\nvalue = [200, 3]\nclass = 耀发", fillcolor="#e5833c"] ;
601 -> 677 ;
678 [label="stetson_k <= 0.875\ngini = 0.375\nsamples = 4\nvalue = [1, 3]\nclass = 非耀发", fillcolor="#7bbeee"] ;
677 -> 678 ;
679 [label="gini = 0.0\nsamples = 3\nvalue = [0, 3]\nclass = 非耀发", fillcolor="#399de5"] ;
678 -> 679 ;
680 [label="gini = 0.0\nsamples = 1\nvalue = [1, 0]\nclass = 耀发", fillcolor="#e58139"] ;
678 -> 680 ;
681 [label="gini = 0.0\nsamples = 199\nvalue = [199, 0]\nclass = 耀发", fillcolor="#e58139"] ;
677 -> 681 ;
682 [label="fpr65 <= 0.588\ngini = 0.173\nsamples = 824\nvalue = [745, 79]\nclass = 耀发", fillcolor="#e88e4e"] ;
600 -> 682 ;
683 [label="skew <= -0.185\ngini = 0.031\nsamples = 636\nvalue = [626, 10]\nclass = 耀发", fillcolor="#e5833c"] ;
682 -> 683 ;
684 [label="skew <= -0.191\ngini = 0.022\nsamples = 631\nvalue = [624, 7]\nclass = 耀发", fillcolor="#e5823b"] ;
683 -> 684 ;
685 [label="skew <= -0.2\ngini = 0.01\nsamples = 603\nvalue = [600, 3]\nclass = 耀发", fillcolor="#e5823a"] ;
684 -> 685 ;
686 [label="fpr65 <= 0.571\ngini = 0.004\nsamples = 568\nvalue = [567, 1]\nclass = 耀发", fillcolor="#e58139"] ;
685 -> 686 ;
687 [label="gini = 0.0\nsamples = 552\nvalue = [552, 0]\nclass = 耀发", fillcolor="#e58139"] ;
686 -> 687 ;
688 [label="fpr65 <= 0.572\ngini = 0.117\nsamples = 16\nvalue = [15, 1]\nclass = 耀发", fillcolor="#e78946"] ;
686 -> 688 ;
689 [label="gini = 0.0\nsamples = 1\nvalue = [0, 1]\nclass = 非耀发", fillcolor="#399de5"] ;
688 -> 689 ;
690 [label="gini = 0.0\nsamples = 15\nvalue = [15, 0]\nclass = 耀发", fillcolor="#e58139"] ;
688 -> 690 ;
691 [label="stetson_j <= -3.077\ngini = 0.108\nsamples = 35\nvalue = [33, 2]\nclass = 耀发", fillcolor="#e78945"] ;
685 -> 691 ;
692 [label="kurtosis <= -0.656\ngini = 0.444\nsamples = 3\nvalue = [1, 2]\nclass = 非耀发", fillcolor="#9ccef2"] ;
691 -> 692 ;
693 [label="gini = 0.0\nsamples = 2\nvalue = [0, 2]\nclass = 非耀发", fillcolor="#399de5"] ;
692 -> 693 ;
694 [label="gini = 0.0\nsamples = 1\nvalue = [1, 0]\nclass = 耀发", fillcolor="#e58139"] ;
692 -> 694 ;
695 [label="gini = 0.0\nsamples = 32\nvalue = [32, 0]\nclass = 耀发", fillcolor="#e58139"] ;
691 -> 695 ;
696 [label="stetson_j <= -2.866\ngini = 0.245\nsamples = 28\nvalue = [24, 4]\nclass = 耀发", fillcolor="#e9965a"] ;
684 -> 696 ;
697 [label="fpr35 <= 0.173\ngini = 0.49\nsamples = 7\nvalue = [3, 4]\nclass = 非耀发", fillcolor="#cee6f8"] ;
696 -> 697 ;
698 [label="gini = 0.0\nsamples = 3\nvalue = [3, 0]\nclass = 耀发", fillcolor="#e58139"] ;
697 -> 698 ;
699 [label="gini = 0.0\nsamples = 4\nvalue = [0, 4]\nclass = 非耀发", fillcolor="#399de5"] ;
697 -> 699 ;
700 [label="gini = 0.0\nsamples = 21\nvalue = [21, 0]\nclass = 耀发", fillcolor="#e58139"] ;
696 -> 700 ;
701 [label="mad <= 0.652\ngini = 0.48\nsamples = 5\nvalue = [2, 3]\nclass = 非耀发", fillcolor="#bddef6"] ;
683 -> 701 ;
702 [label="gini = 0.0\nsamples = 2\nvalue = [2, 0]\nclass = 耀发", fillcolor="#e58139"] ;
701 -> 702 ;
703 [label="gini = 0.0\nsamples = 3\nvalue = [0, 3]\nclass = 非耀发", fillcolor="#399de5"] ;
701 -> 703 ;
704 [label="max_slope <= 1.125\ngini = 0.465\nsamples = 188\nvalue = [119, 69]\nclass = 耀发", fillcolor="#f4caac"] ;
682 -> 704 ;
705 [label="fpr50 <= 0.524\ngini = 0.482\nsamples = 116\nvalue = [47, 69]\nclass = 非耀发", fillcolor="#c0e0f7"] ;
704 -> 705 ;
706 [label="fpr80 <= 0.982\ngini = 0.433\nsamples = 101\nvalue = [32, 69]\nclass = 非耀发", fillcolor="#95caf1"] ;
705 -> 706 ;
707 [label="fpr50 <= 0.328\ngini = 0.367\nsamples = 91\nvalue = [22, 69]\nclass = 非耀发", fillcolor="#78bced"] ;
706 -> 707 ;
708 [label="gini = 0.0\nsamples = 7\nvalue = [7, 0]\nclass = 耀发", fillcolor="#e58139"] ;
707 -> 708 ;
709 [label="mad <= 0.893\ngini = 0.293\nsamples = 84\nvalue = [15, 69]\nclass = 非耀发", fillcolor="#64b2eb"] ;
707 -> 709 ;
710 [label="fpr80 <= 0.763\ngini = 0.237\nsamples = 80\nvalue = [11, 69]\nclass = 非耀发", fillcolor="#59ade9"] ;
709 -> 710 ;
711 [label="gini = 0.0\nsamples = 4\nvalue = [4, 0]\nclass = 耀发", fillcolor="#e58139"] ;
710 -> 711 ;
712 [label="skew <= -0.394\ngini = 0.167\nsamples = 76\nvalue = [7, 69]\nclass = 非耀发", fillcolor="#4da7e8"] ;
710 -> 712 ;
713 [label="fpr50 <= 0.356\ngini = 0.375\nsamples = 4\nvalue = [3, 1]\nclass = 耀发", fillcolor="#eeab7b"] ;
712 -> 713 ;
714 [label="gini = 0.0\nsamples = 1\nvalue = [0, 1]\nclass = 非耀发", fillcolor="#399de5"] ;
713 -> 714 ;
715 [label="gini = 0.0\nsamples = 3\nvalue = [3, 0]\nclass = 耀发", fillcolor="#e58139"] ;
713 -> 715 ;
716 [label="amp <= 3.509\ngini = 0.105\nsamples = 72\nvalue = [4, 68]\nclass = 非耀发", fillcolor="#45a3e7"] ;
712 -> 716 ;
717 [label="fpr35 <= 0.429\ngini = 0.056\nsamples = 70\nvalue = [2, 68]\nclass = 非耀发", fillcolor="#3fa0e6"] ;
716 -> 717 ;
718 [label="max_slope <= 0.802\ngini = 0.029\nsamples = 69\nvalue = [1, 68]\nclass = 非耀发", fillcolor="#3c9ee5"] ;
717 -> 718 ;
719 [label="max_slope <= 0.801\ngini = 0.5\nsamples = 2\nvalue = [1, 1]\nclass = 耀发", fillcolor="#ffffff"] ;
718 -> 719 ;
720 [label="gini = 0.0\nsamples = 1\nvalue = [0, 1]\nclass = 非耀发", fillcolor="#399de5"] ;
719 -> 720 ;
721 [label="gini = 0.0\nsamples = 1\nvalue = [1, 0]\nclass = 耀发", fillcolor="#e58139"] ;
719 -> 721 ;
722 [label="gini = 0.0\nsamples = 67\nvalue = [0, 67]\nclass = 非耀发", fillcolor="#399de5"] ;
718 -> 722 ;
723 [label="gini = 0.0\nsamples = 1\nvalue = [1, 0]\nclass = 耀发", fillcolor="#e58139"] ;
717 -> 723 ;
724 [label="gini = 0.0\nsamples = 2\nvalue = [2, 0]\nclass = 耀发", fillcolor="#e58139"] ;
716 -> 724 ;
725 [label="gini = 0.0\nsamples = 4\nvalue = [4, 0]\nclass = 耀发", fillcolor="#e58139"] ;
709 -> 725 ;
726 [label="gini = 0.0\nsamples = 10\nvalue = [10, 0]\nclass = 耀发", fillcolor="#e58139"] ;
706 -> 726 ;
727 [label="gini = 0.0\nsamples = 15\nvalue = [15, 0]\nclass = 耀发", fillcolor="#e58139"] ;
705 -> 727 ;
728 [label="gini = 0.0\nsamples = 72\nvalue = [72, 0]\nclass = 耀发", fillcolor="#e58139"] ;
704 -> 728 ;
729 [label="kurtosis <= -1.108\ngini = 0.206\nsamples = 8625\nvalue = [7621, 1004]\nclass = 耀发", fillcolor="#e89253"] ;
599 -> 729 ;
730 [label="mad <= 0.779\ngini = 0.435\nsamples = 1299\nvalue = [884, 415]\nclass = 耀发", fillcolor="#f1bc96"] ;
729 -> 730 ;
731 [label="gini = 0.0\nsamples = 321\nvalue = [321, 0]\nclass = 耀发", fillcolor="#e58139"] ;
730 -> 731 ;
732 [label="max_slope <= 1.064\ngini = 0.489\nsamples = 978\nvalue = [563, 415]\nclass = 耀发", fillcolor="#f8decb"] ;
730 -> 732 ;
733 [label="fpr35 <= 0.41\ngini = 0.496\nsamples = 688\nvalue = [312, 376]\nclass = 非耀发", fillcolor="#ddeefb"] ;
732 -> 733 ;
734 [label="fpr50 <= 0.484\ngini = 0.458\nsamples = 581\nvalue = [206, 375]\nclass = 非耀发", fillcolor="#a6d3f3"] ;
733 -> 734 ;
735 [label="stetson_k <= 0.873\ngini = 0.421\nsamples = 232\nvalue = [162, 70]\nclass = 耀发", fillcolor="#f0b78f"] ;
734 -> 735 ;
736 [label="skew <= 0.056\ngini = 0.498\nsamples = 132\nvalue = [62, 70]\nclass = 非耀发", fillcolor="#e8f4fc"] ;
735 -> 736 ;
737 [label="fpr50 <= 0.399\ngini = 0.44\nsamples = 104\nvalue = [34, 70]\nclass = 非耀发", fillcolor="#99cdf2"] ;
736 -> 737 ;
738 [label="max_slope <= 1.025\ngini = 0.337\nsamples = 28\nvalue = [22, 6]\nclass = 耀发", fillcolor="#eca36f"] ;
737 -> 738 ;
739 [label="gini = 0.0\nsamples = 19\nvalue = [19, 0]\nclass = 耀发", fillcolor="#e58139"] ;
738 -> 739 ;
740 [label="sk <= -1.141\ngini = 0.444\nsamples = 9\nvalue = [3, 6]\nclass = 非耀发", fillcolor="#9ccef2"] ;
738 -> 740 ;
741 [label="gini = 0.0\nsamples = 3\nvalue = [3, 0]\nclass = 耀发", fillcolor="#e58139"] ;
740 -> 741 ;
742 [label="gini = 0.0\nsamples = 6\nvalue = [0, 6]\nclass = 非耀发", fillcolor="#399de5"] ;
740 -> 742 ;
743 [label="fpr20 <= 0.137\ngini = 0.266\nsamples = 76\nvalue = [12, 64]\nclass = 非耀发", fillcolor="#5eafea"] ;
737 -> 743 ;
744 [label="gini = 0.0\nsamples = 5\nvalue = [5, 0]\nclass = 耀发", fillcolor="#e58139"] ;
743 -> 744 ;
745 [label="beyond1std <= 0.317\ngini = 0.178\nsamples = 71\nvalue = [7, 64]\nclass = 非耀发", fillcolor="#4fa8e8"] ;
743 -> 745 ;
746 [label="gini = 0.0\nsamples = 2\nvalue = [2, 0]\nclass = 耀发", fillcolor="#e58139"] ;
745 -> 746 ;
747 [label="fpr65 <= 0.661\ngini = 0.134\nsamples = 69\nvalue = [5, 64]\nclass = 非耀发", fillcolor="#48a5e7"] ;
745 -> 747 ;
748 [label="stetson_k <= 0.846\ngini = 0.086\nsamples = 67\nvalue = [3, 64]\nclass = 非耀发", fillcolor="#42a2e6"] ;
747 -> 748 ;
749 [label="gini = 0.0\nsamples = 1\nvalue = [1, 0]\nclass = 耀发", fillcolor="#e58139"] ;
748 -> 749 ;
750 [label="stetson_j <= -1.191\ngini = 0.059\nsamples = 66\nvalue = [2, 64]\nclass = 非耀发", fillcolor="#3fa0e6"] ;
748 -> 750 ;
751 [label="fpr20 <= 0.15\ngini = 0.031\nsamples = 64\nvalue = [1, 63]\nclass = 非耀发", fillcolor="#3c9fe5"] ;
750 -> 751 ;
752 [label="mad <= 0.826\ngini = 0.219\nsamples = 8\nvalue = [1, 7]\nclass = 非耀发", fillcolor="#55abe9"] ;
751 -> 752 ;
753 [label="gini = 0.0\nsamples = 7\nvalue = [0, 7]\nclass = 非耀发", fillcolor="#399de5"] ;
752 -> 753 ;
754 [label="gini = 0.0\nsamples = 1\nvalue = [1, 0]\nclass = 耀发", fillcolor="#e58139"] ;
752 -> 754 ;
755 [label="gini = 0.0\nsamples = 56\nvalue = [0, 56]\nclass = 非耀发", fillcolor="#399de5"] ;
751 -> 755 ;
756 [label="fpr65 <= 0.619\ngini = 0.5\nsamples = 2\nvalue = [1, 1]\nclass = 耀发", fillcolor="#ffffff"] ;
750 -> 756 ;
757 [label="gini = 0.0\nsamples = 1\nvalue = [1, 0]\nclass = 耀发", fillcolor="#e58139"] ;
756 -> 757 ;
758 [label="gini = 0.0\nsamples = 1\nvalue = [0, 1]\nclass = 非耀发", fillcolor="#399de5"] ;
756 -> 758 ;
759 [label="gini = 0.0\nsamples = 2\nvalue = [2, 0]\nclass = 耀发", fillcolor="#e58139"] ;
747 -> 759 ;
760 [label="gini = 0.0\nsamples = 28\nvalue = [28, 0]\nclass = 耀发", fillcolor="#e58139"] ;
736 -> 760 ;
761 [label="gini = 0.0\nsamples = 100\nvalue = [100, 0]\nclass = 耀发", fillcolor="#e58139"] ;
735 -> 761 ;
762 [label="stetson_j <= 0.04\ngini = 0.22\nsamples = 349\nvalue = [44, 305]\nclass = 非耀发", fillcolor="#56abe9"] ;
734 -> 762 ;
763 [label="fpr65 <= 0.577\ngini = 0.163\nsamples = 335\nvalue = [30, 305]\nclass = 非耀发", fillcolor="#4ca7e8"] ;
762 -> 763 ;
764 [label="gini = 0.0\nsamples = 7\nvalue = [7, 0]\nclass = 耀发", fillcolor="#e58139"] ;
763 -> 764 ;
765 [label="stetson_k <= 0.854\ngini = 0.13\nsamples = 328\nvalue = [23, 305]\nclass = 非耀发", fillcolor="#48a4e7"] ;
763 -> 765 ;
766 [label="gini = 0.0\nsamples = 5\nvalue = [5, 0]\nclass = 耀发", fillcolor="#e58139"] ;
765 -> 766 ;
767 [label="amp <= 3.423\ngini = 0.105\nsamples = 323\nvalue = [18, 305]\nclass = 非耀发", fillcolor="#45a3e7"] ;
765 -> 767 ;
768 [label="fpr35 <= 0.29\ngini = 0.084\nsamples = 319\nvalue = [14, 305]\nclass = 非耀发", fillcolor="#42a1e6"] ;
767 -> 768 ;
769 [label="gini = 0.0\nsamples = 3\nvalue = [3, 0]\nclass = 耀发", fillcolor="#e58139"] ;
768 -> 769 ;
770 [label="fpr80 <= 0.977\ngini = 0.067\nsamples = 316\nvalue = [11, 305]\nclass = 非耀发", fillcolor="#40a1e6"] ;
768 -> 770 ;
771 [label="sk <= -1.435\ngini = 0.05\nsamples = 313\nvalue = [8, 305]\nclass = 非耀发", fillcolor="#3ea0e6"] ;
770 -> 771 ;
772 [label="gini = 0.0\nsamples = 2\nvalue = [2, 0]\nclass = 耀发", fillcolor="#e58139"] ;
771 -> 772 ;
773 [label="fpr20 <= 0.293\ngini = 0.038\nsamples = 311\nvalue = [6, 305]\nclass = 非耀发", fillcolor="#3d9fe6"] ;
771 -> 773 ;
774 [label="amp <= 3.074\ngini = 0.032\nsamples = 310\nvalue = [5, 305]\nclass = 非耀发", fillcolor="#3c9fe5"] ;
773 -> 774 ;
775 [label="skew <= 0.076\ngini = 0.444\nsamples = 3\nvalue = [1, 2]\nclass = 非耀发", fillcolor="#9ccef2"] ;
774 -> 775 ;
776 [label="gini = 0.0\nsamples = 2\nvalue = [0, 2]\nclass = 非耀发", fillcolor="#399de5"] ;
775 -> 776 ;
777 [label="gini = 0.0\nsamples = 1\nvalue = [1, 0]\nclass = 耀发", fillcolor="#e58139"] ;
775 -> 777 ;
778 [label="mad <= 0.809\ngini = 0.026\nsamples = 307\nvalue = [4, 303]\nclass = 非耀发", fillcolor="#3c9ee5"] ;
774 -> 778 ;
779 [label="mad <= 0.808\ngini = 0.444\nsamples = 3\nvalue = [1, 2]\nclass = 非耀发", fillcolor="#9ccef2"] ;
778 -> 779 ;
780 [label="gini = 0.0\nsamples = 2\nvalue = [0, 2]\nclass = 非耀发", fillcolor="#399de5"] ;
779 -> 780 ;
781 [label="gini = 0.0\nsamples = 1\nvalue = [1, 0]\nclass = 耀发", fillcolor="#e58139"] ;
779 -> 781 ;
782 [label="beyond1std <= 0.417\ngini = 0.02\nsamples = 304\nvalue = [3, 301]\nclass = 非耀发", fillcolor="#3b9ee5"] ;
778 -> 782 ;
783 [label="fpr35 <= 0.389\ngini = 0.219\nsamples = 24\nvalue = [3, 21]\nclass = 非耀发", fillcolor="#55abe9"] ;
782 -> 783 ;
784 [label="gini = 0.0\nsamples = 3\nvalue = [3, 0]\nclass = 耀发", fillcolor="#e58139"] ;
783 -> 784 ;
785 [label="gini = 0.0\nsamples = 21\nvalue = [0, 21]\nclass = 非耀发", fillcolor="#399de5"] ;
783 -> 785 ;
786 [label="gini = 0.0\nsamples = 280\nvalue = [0, 280]\nclass = 非耀发", fillcolor="#399de5"] ;
782 -> 786 ;
787 [label="gini = 0.0\nsamples = 1\nvalue = [1, 0]\nclass = 耀发", fillcolor="#e58139"] ;
773 -> 787 ;
788 [label="gini = 0.0\nsamples = 3\nvalue = [3, 0]\nclass = 耀发", fillcolor="#e58139"] ;
770 -> 788 ;
789 [label="gini = 0.0\nsamples = 4\nvalue = [4, 0]\nclass = 耀发", fillcolor="#e58139"] ;
767 -> 789 ;
790 [label="gini = 0.0\nsamples = 14\nvalue = [14, 0]\nclass = 耀发", fillcolor="#e58139"] ;
762 -> 790 ;
791 [label="max_slope <= 0.801\ngini = 0.019\nsamples = 107\nvalue = [106, 1]\nclass = 耀发", fillcolor="#e5823b"] ;
733 -> 791 ;
792 [label="stetson_j <= -2.122\ngini = 0.5\nsamples = 2\nvalue = [1, 1]\nclass = 耀发", fillcolor="#ffffff"] ;
791 -> 792 ;
793 [label="gini = 0.0\nsamples = 1\nvalue = [1, 0]\nclass = 耀发", fillcolor="#e58139"] ;
792 -> 793 ;
794 [label="gini = 0.0\nsamples = 1\nvalue = [0, 1]\nclass = 非耀发", fillcolor="#399de5"] ;
792 -> 794 ;
795 [label="gini = 0.0\nsamples = 105\nvalue = [105, 0]\nclass = 耀发", fillcolor="#e58139"] ;
791 -> 795 ;
796 [label="kurtosis <= -1.164\ngini = 0.233\nsamples = 290\nvalue = [251, 39]\nclass = 耀发", fillcolor="#e99558"] ;
732 -> 796 ;
797 [label="gini = 0.0\nsamples = 189\nvalue = [189, 0]\nclass = 耀发", fillcolor="#e58139"] ;
796 -> 797 ;
798 [label="fpr20 <= 0.202\ngini = 0.474\nsamples = 101\nvalue = [62, 39]\nclass = 耀发", fillcolor="#f5d0b6"] ;
796 -> 798 ;
799 [label="fpr20 <= 0.165\ngini = 0.455\nsamples = 60\nvalue = [21, 39]\nclass = 非耀发", fillcolor="#a4d2f3"] ;
798 -> 799 ;
800 [label="gini = 0.0\nsamples = 20\nvalue = [20, 0]\nclass = 耀发", fillcolor="#e58139"] ;
799 -> 800 ;
801 [label="fpr50 <= 0.529\ngini = 0.049\nsamples = 40\nvalue = [1, 39]\nclass = 非耀发", fillcolor="#3ea0e6"] ;
799 -> 801 ;
802 [label="gini = 0.0\nsamples = 39\nvalue = [0, 39]\nclass = 非耀发", fillcolor="#399de5"] ;
801 -> 802 ;
803 [label="gini = 0.0\nsamples = 1\nvalue = [1, 0]\nclass = 耀发", fillcolor="#e58139"] ;
801 -> 803 ;
804 [label="gini = 0.0\nsamples = 41\nvalue = [41, 0]\nclass = 耀发", fillcolor="#e58139"] ;
798 -> 804 ;
805 [label="fpr20 <= 0.172\ngini = 0.148\nsamples = 7326\nvalue = [6737, 589]\nclass = 耀发", fillcolor="#e78c4a"] ;
729 -> 805 ;
806 [label="fpr20 <= 0.024\ngini = 0.211\nsamples = 4424\nvalue = [3893, 531]\nclass = 耀发", fillcolor="#e99254"] ;
805 -> 806 ;
807 [label="max_slope <= 0.85\ngini = 0.012\nsamples = 2094\nvalue = [2081, 13]\nclass = 耀发", fillcolor="#e5823a"] ;
806 -> 807 ;
808 [label="skew <= 0.238\ngini = 0.42\nsamples = 40\nvalue = [28, 12]\nclass = 耀发", fillcolor="#f0b78e"] ;
807 -> 808 ;
809 [label="stetson_j <= -4.167\ngini = 0.375\nsamples = 16\nvalue = [4, 12]\nclass = 非耀发", fillcolor="#7bbeee"] ;
808 -> 809 ;
810 [label="gini = 0.0\nsamples = 4\nvalue = [4, 0]\nclass = 耀发", fillcolor="#e58139"] ;
809 -> 810 ;
811 [label="gini = 0.0\nsamples = 12\nvalue = [0, 12]\nclass = 非耀发", fillcolor="#399de5"] ;
809 -> 811 ;
812 [label="gini = 0.0\nsamples = 24\nvalue = [24, 0]\nclass = 耀发", fillcolor="#e58139"] ;
808 -> 812 ;
813 [label="fpr20 <= 0.024\ngini = 0.001\nsamples = 2054\nvalue = [2053, 1]\nclass = 耀发", fillcolor="#e58139"] ;
807 -> 813 ;
814 [label="gini = 0.0\nsamples = 2042\nvalue = [2042, 0]\nclass = 耀发", fillcolor="#e58139"] ;
813 -> 814 ;
815 [label="fpr50 <= 0.171\ngini = 0.153\nsamples = 12\nvalue = [11, 1]\nclass = 耀发", fillcolor="#e78c4b"] ;
813 -> 815 ;
816 [label="gini = 0.0\nsamples = 1\nvalue = [0, 1]\nclass = 非耀发", fillcolor="#399de5"] ;
815 -> 816 ;
817 [label="gini = 0.0\nsamples = 11\nvalue = [11, 0]\nclass = 耀发", fillcolor="#e58139"] ;
815 -> 817 ;
818 [label="fpr35 <= 0.17\ngini = 0.346\nsamples = 2330\nvalue = [1812, 518]\nclass = 耀发", fillcolor="#eca572"] ;
806 -> 818 ;
819 [label="mad <= 0.658\ngini = 0.492\nsamples = 557\nvalue = [243, 314]\nclass = 非耀发", fillcolor="#d2e9f9"] ;
818 -> 819 ;
820 [label="mad <= 0.351\ngini = 0.454\nsamples = 479\nvalue = [167, 312]\nclass = 非耀发", fillcolor="#a3d1f3"] ;
819 -> 820 ;
821 [label="gini = 0.0\nsamples = 43\nvalue = [43, 0]\nclass = 耀发", fillcolor="#e58139"] ;
820 -> 821 ;
822 [label="fpr20 <= 0.114\ngini = 0.407\nsamples = 436\nvalue = [124, 312]\nclass = 非耀发", fillcolor="#88c4ef"] ;
820 -> 822 ;
823 [label="amp <= 3.914\ngini = 0.354\nsamples = 405\nvalue = [93, 312]\nclass = 非耀发", fillcolor="#74baed"] ;
822 -> 823 ;
824 [label="amp <= 3.581\ngini = 0.181\nsamples = 258\nvalue = [26, 232]\nclass = 非耀发", fillcolor="#4fa8e8"] ;
823 -> 824 ;
825 [label="gini = 0.0\nsamples = 13\nvalue = [13, 0]\nclass = 耀发", fillcolor="#e58139"] ;
824 -> 825 ;
826 [label="fpr35 <= 0.084\ngini = 0.1\nsamples = 245\nvalue = [13, 232]\nclass = 非耀发", fillcolor="#44a2e6"] ;
824 -> 826 ;
827 [label="gini = 0.0\nsamples = 4\nvalue = [4, 0]\nclass = 耀发", fillcolor="#e58139"] ;
826 -> 827 ;
828 [label="beyond1std <= 0.417\ngini = 0.072\nsamples = 241\nvalue = [9, 232]\nclass = 非耀发", fillcolor="#41a1e6"] ;
826 -> 828 ;
829 [label="kurtosis <= -0.465\ngini = 0.057\nsamples = 239\nvalue = [7, 232]\nclass = 非耀发", fillcolor="#3fa0e6"] ;
828 -> 829 ;
830 [label="fpr80 <= 0.836\ngini = 0.313\nsamples = 36\nvalue = [7, 29]\nclass = 非耀发", fillcolor="#69b5eb"] ;
829 -> 830 ;
831 [label="gini = 0.0\nsamples = 7\nvalue = [7, 0]\nclass = 耀发", fillcolor="#e58139"] ;
830 -> 831 ;
832 [label="gini = 0.0\nsamples = 29\nvalue = [0, 29]\nclass = 非耀发", fillcolor="#399de5"] ;
830 -> 832 ;
833 [label="gini = 0.0\nsamples = 203\nvalue = [0, 203]\nclass = 非耀发", fillcolor="#399de5"] ;
829 -> 833 ;
834 [label="gini = 0.0\nsamples = 2\nvalue = [2, 0]\nclass = 耀发", fillcolor="#e58139"] ;
828 -> 834 ;
835 [label="fpr20 <= 0.062\ngini = 0.496\nsamples = 147\nvalue = [67, 80]\nclass = 非耀发", fillcolor="#dfeffb"] ;
823 -> 835 ;
836 [label="gini = 0.0\nsamples = 36\nvalue = [36, 0]\nclass = 耀发", fillcolor="#e58139"] ;
835 -> 836 ;
837 [label="fpr65 <= 0.382\ngini = 0.403\nsamples = 111\nvalue = [31, 80]\nclass = 非耀发", fillcolor="#86c3ef"] ;
835 -> 837 ;
838 [label="gini = 0.0\nsamples = 17\nvalue = [17, 0]\nclass = 耀发", fillcolor="#e58139"] ;
837 -> 838 ;
839 [label="max_slope <= 1.092\ngini = 0.254\nsamples = 94\nvalue = [14, 80]\nclass = 非耀发", fillcolor="#5caeea"] ;
837 -> 839 ;
840 [label="gini = 0.0\nsamples = 7\nvalue = [7, 0]\nclass = 耀发", fillcolor="#e58139"] ;
839 -> 840 ;
841 [label="fpr80 <= 0.946\ngini = 0.148\nsamples = 87\nvalue = [7, 80]\nclass = 非耀发", fillcolor="#4aa6e7"] ;
839 -> 841 ;
842 [label="fpr35 <= 0.156\ngini = 0.091\nsamples = 84\nvalue = [4, 80]\nclass = 非耀发", fillcolor="#43a2e6"] ;
841 -> 842 ;
843 [label="fpr50 <= 0.299\ngini = 0.048\nsamples = 82\nvalue = [2, 80]\nclass = 非耀发", fillcolor="#3e9fe6"] ;
842 -> 843 ;
844 [label="gini = 0.0\nsamples = 80\nvalue = [0, 80]\nclass = 非耀发", fillcolor="#399de5"] ;
843 -> 844 ;
845 [label="gini = 0.0\nsamples = 2\nvalue = [2, 0]\nclass = 耀发", fillcolor="#e58139"] ;
843 -> 845 ;
846 [label="gini = 0.0\nsamples = 2\nvalue = [2, 0]\nclass = 耀发", fillcolor="#e58139"] ;
842 -> 846 ;
847 [label="gini = 0.0\nsamples = 3\nvalue = [3, 0]\nclass = 耀发", fillcolor="#e58139"] ;
841 -> 847 ;
848 [label="gini = 0.0\nsamples = 31\nvalue = [31, 0]\nclass = 耀发", fillcolor="#e58139"] ;
822 -> 848 ;
849 [label="max_slope <= 0.802\ngini = 0.05\nsamples = 78\nvalue = [76, 2]\nclass = 耀发", fillcolor="#e6843e"] ;
819 -> 849 ;
850 [label="gini = 0.0\nsamples = 2\nvalue = [0, 2]\nclass = 非耀发", fillcolor="#399de5"] ;
849 -> 850 ;
851 [label="gini = 0.0\nsamples = 76\nvalue = [76, 0]\nclass = 耀发", fillcolor="#e58139"] ;
849 -> 851 ;
852 [label="skew <= 0.193\ngini = 0.204\nsamples = 1773\nvalue = [1569, 204]\nclass = 耀发", fillcolor="#e89153"] ;
818 -> 852 ;
853 [label="mad <= 0.804\ngini = 0.382\nsamples = 711\nvalue = [528, 183]\nclass = 耀发", fillcolor="#eead7e"] ;
852 -> 853 ;
854 [label="max_slope <= 1.274\ngini = 0.494\nsamples = 412\nvalue = [229, 183]\nclass = 耀发", fillcolor="#fae6d7"] ;
853 -> 854 ;
855 [label="max_slope <= 1.047\ngini = 0.475\nsamples = 299\nvalue = [116, 183]\nclass = 非耀发", fillcolor="#b7dbf5"] ;
854 -> 855 ;
856 [label="fpr65 <= 0.745\ngini = 0.385\nsamples = 119\nvalue = [88, 31]\nclass = 耀发", fillcolor="#eead7f"] ;
855 -> 856 ;
857 [label="max_slope <= 0.816\ngini = 0.183\nsamples = 98\nvalue = [88, 10]\nclass = 耀发", fillcolor="#e88f50"] ;
856 -> 857 ;
858 [label="skew <= -0.037\ngini = 0.5\nsamples = 18\nvalue = [9, 9]\nclass = 耀发", fillcolor="#ffffff"] ;
857 -> 858 ;
859 [label="beyond1std <= 0.383\ngini = 0.298\nsamples = 11\nvalue = [2, 9]\nclass = 非耀发", fillcolor="#65b3eb"] ;
858 -> 859 ;
860 [label="gini = 0.0\nsamples = 2\nvalue = [2, 0]\nclass = 耀发", fillcolor="#e58139"] ;
859 -> 860 ;
861 [label="gini = 0.0\nsamples = 9\nvalue = [0, 9]\nclass = 非耀发", fillcolor="#399de5"] ;
859 -> 861 ;
862 [label="gini = 0.0\nsamples = 7\nvalue = [7, 0]\nclass = 耀发", fillcolor="#e58139"] ;
858 -> 862 ;
863 [label="fpr35 <= 0.175\ngini = 0.025\nsamples = 80\nvalue = [79, 1]\nclass = 耀发", fillcolor="#e5833c"] ;
857 -> 863 ;
864 [label="mad <= 0.71\ngini = 0.5\nsamples = 2\nvalue = [1, 1]\nclass = 耀发", fillcolor="#ffffff"] ;
863 -> 864 ;
865 [label="gini = 0.0\nsamples = 1\nvalue = [0, 1]\nclass = 非耀发", fillcolor="#399de5"] ;
864 -> 865 ;
866 [label="gini = 0.0\nsamples = 1\nvalue = [1, 0]\nclass = 耀发", fillcolor="#e58139"] ;
864 -> 866 ;
867 [label="gini = 0.0\nsamples = 78\nvalue = [78, 0]\nclass = 耀发", fillcolor="#e58139"] ;
863 -> 867 ;
868 [label="gini = 0.0\nsamples = 21\nvalue = [0, 21]\nclass = 非耀发", fillcolor="#399de5"] ;
856 -> 868 ;
869 [label="fpr65 <= 0.444\ngini = 0.263\nsamples = 180\nvalue = [28, 152]\nclass = 非耀发", fillcolor="#5dafea"] ;
855 -> 869 ;
870 [label="gini = 0.0\nsamples = 17\nvalue = [17, 0]\nclass = 耀发", fillcolor="#e58139"] ;
869 -> 870 ;
871 [label="stetson_k <= 0.827\ngini = 0.126\nsamples = 163\nvalue = [11, 152]\nclass = 非耀发", fillcolor="#47a4e7"] ;
869 -> 871 ;
872 [label="gini = 0.0\nsamples = 5\nvalue = [5, 0]\nclass = 耀发", fillcolor="#e58139"] ;
871 -> 872 ;
873 [label="amp <= 3.403\ngini = 0.073\nsamples = 158\nvalue = [6, 152]\nclass = 非耀发", fillcolor="#41a1e6"] ;
871 -> 873 ;
874 [label="gini = 0.0\nsamples = 3\nvalue = [3, 0]\nclass = 耀发", fillcolor="#e58139"] ;
873 -> 874 ;
